<?xml version="1.0"?>
<MethodSetup Method="BDT::BDTG_200Cuts_Depth4_baggedGrad_1000trees_shrinkage0p1_electron_2017">
  <GeneralInfo>
    <Info name="TMVA Release" value="4.2.1 [262657]"/>
    <Info name="ROOT Release" value="6.10/06 [395782]"/>
    <Info name="Creator" value="wverbeke"/>
    <Info name="Date" value="Thu Mar 29 00:06:59 2018"/>
    <Info name="Host" value="Linux lcgapp-slc6-x86-64-21.cern.ch 2.6.32-696.3.2.el6.x86_64 #1 SMP Tue Jun 20 09:58:05 CEST 2017 x86_64 x86_64 x86_64 GNU/Linux"/>
    <Info name="Dir" value="/storage_mnt/storage/user/wverbeke/Work/AnalysisCode/ewkino/leptonMvaTraining"/>
    <Info name="Training events" value="5400733"/>
    <Info name="TrainingTime" value="1.10930820e+04"/>
    <Info name="AnalysisType" value="Classification"/>
  </GeneralInfo>
  <Options>
    <Option name="V" modified="Yes">False</Option>
    <Option name="VerbosityLevel" modified="No">Default</Option>
    <Option name="VarTransform" modified="No">None</Option>
    <Option name="H" modified="Yes">False</Option>
    <Option name="CreateMVAPdfs" modified="No">False</Option>
    <Option name="IgnoreNegWeightsInTraining" modified="Yes">True</Option>
    <Option name="NTrees" modified="Yes">1000</Option>
    <Option name="MaxDepth" modified="Yes">4</Option>
    <Option name="MinNodeSize" modified="Yes">2.5%</Option>
    <Option name="nCuts" modified="Yes">200</Option>
    <Option name="BoostType" modified="Yes">Grad</Option>
    <Option name="AdaBoostR2Loss" modified="No">quadratic</Option>
    <Option name="UseBaggedBoost" modified="Yes">True</Option>
    <Option name="Shrinkage" modified="Yes">1.000000e-01</Option>
    <Option name="AdaBoostBeta" modified="No">5.000000e-01</Option>
    <Option name="UseRandomisedTrees" modified="No">False</Option>
    <Option name="UseNvars" modified="No">4</Option>
    <Option name="UsePoissonNvars" modified="No">True</Option>
    <Option name="BaggedSampleFraction" modified="No">6.000000e-01</Option>
    <Option name="UseYesNoLeaf" modified="No">True</Option>
    <Option name="NegWeightTreatment" modified="No">pray</Option>
    <Option name="Css" modified="No">1.000000e+00</Option>
    <Option name="Cts_sb" modified="No">1.000000e+00</Option>
    <Option name="Ctb_ss" modified="No">1.000000e+00</Option>
    <Option name="Cbb" modified="No">1.000000e+00</Option>
    <Option name="NodePurityLimit" modified="No">5.000000e-01</Option>
    <Option name="SeparationType" modified="No">giniindex</Option>
    <Option name="RegressionLossFunctionBDTG" modified="No">huber</Option>
    <Option name="HuberQuantile" modified="No">7.000000e-01</Option>
    <Option name="DoBoostMonitor" modified="Yes">True</Option>
    <Option name="UseFisherCuts" modified="No">False</Option>
    <Option name="MinLinCorrForFisher" modified="No">8.000000e-01</Option>
    <Option name="UseExclusiveVars" modified="No">False</Option>
    <Option name="DoPreselection" modified="No">False</Option>
    <Option name="SigToBkgFraction" modified="No">1.000000e+00</Option>
    <Option name="PruneMethod" modified="No">nopruning</Option>
    <Option name="PruneStrength" modified="No">0.000000e+00</Option>
    <Option name="PruningValFraction" modified="No">5.000000e-01</Option>
    <Option name="SkipNormalization" modified="No">False</Option>
    <Option name="nEventsMin" modified="No">0</Option>
    <Option name="UseBaggedGrad" modified="No">False</Option>
    <Option name="GradBaggingFraction" modified="No">6.000000e-01</Option>
    <Option name="UseNTrainEvents" modified="No">0</Option>
    <Option name="NNodesMax" modified="No">0</Option>
  </Options>
  <Variables NVar="13">
    <Variable VarIndex="0" Expression="pt" Label="pt" Title="pt" Unit="" Internal="pt" Type="F" Min="1.00000401e+01" Max="2.07489673e+03"/>
    <Variable VarIndex="1" Expression="eta" Label="eta" Title="eta" Unit="" Internal="eta" Type="F" Min="9.54218990e-07" Max="2.49999952e+00"/>
    <Variable VarIndex="2" Expression="trackMultClosestJet" Label="trackMultClosestJet" Title="trackMultClosestJet" Unit="" Internal="trackMultClosestJet" Type="F" Min="0.00000000e+00" Max="4.40000000e+01"/>
    <Variable VarIndex="3" Expression="miniIsoCharged" Label="miniIsoCharged" Title="miniIsoCharged" Unit="" Internal="miniIsoCharged" Type="F" Min="0.00000000e+00" Max="3.99998337e-01"/>
    <Variable VarIndex="4" Expression="miniIsoNeutral" Label="miniIsoNeutral" Title="miniIsoNeutral" Unit="" Internal="miniIsoNeutral" Type="F" Min="0.00000000e+00" Max="3.99997890e-01"/>
    <Variable VarIndex="5" Expression="pTRel" Label="pTRel" Title="pTRel" Unit="" Internal="pTRel" Type="F" Min="0.00000000e+00" Max="1.67510217e+03"/>
    <Variable VarIndex="6" Expression="ptRatio" Label="ptRatio" Title="ptRatio" Unit="" Internal="ptRatio" Type="F" Min="1.57458726e-02" Max="1.50000000e+00"/>
    <Variable VarIndex="7" Expression="relIso" Label="relIso" Title="relIso" Unit="" Internal="relIso" Type="F" Min="0.00000000e+00" Max="2.55189838e+01"/>
    <Variable VarIndex="8" Expression="deepCsvClosestJet" Label="deepCsvClosestJet" Title="deepCsvClosestJet" Unit="" Internal="deepCsvClosestJet" Type="F" Min="0.00000000e+00" Max="9.99894619e-01"/>
    <Variable VarIndex="9" Expression="sip3d" Label="sip3d" Title="sip3d" Unit="" Internal="sip3d" Type="F" Min="1.66869475e-04" Max="7.99994183e+00"/>
    <Variable VarIndex="10" Expression="dxy" Label="dxy" Title="dxy" Unit="" Internal="dxy" Type="F" Min="-2.06739769e+01" Max="-2.99583793e+00"/>
    <Variable VarIndex="11" Expression="dz" Label="dz" Title="dz" Unit="" Internal="dz" Type="F" Min="-1.97251720e+01" Max="-2.30266261e+00"/>
    <Variable VarIndex="12" Expression="electronMvaFall17NoIso" Label="electronMvaFall17NoIso" Title="electronMvaFall17NoIso" Unit="" Internal="electronMvaFall17NoIso" Type="F" Min="-9.99944448e-01" Max="9.99703705e-01"/>
  </Variables>
  <Spectators NSpec="0"/>
  <Classes NClass="2">
    <Class Name="Signal" Index="0"/>
    <Class Name="Background" Index="1"/>
  </Classes>
  <Transformations NTransformations="0"/>
  <MVAPdfs/>
  <Weights NTrees="1000" AnalysisType="1">
    <BinaryTree type="DecisionTree" boostWeight="1.0000000000000000e+00" itree="0">
      <Node pos="s" depth="0" NCoef="0" IVar="6" Cut="8.4491068124771118e-01" cType="1" res="5.7509366888552904e-04" rms="4.9999967217445374e-01" purity="5.0057506561279297e-01" nType="0">
        <Node pos="l" depth="1" NCoef="0" IVar="5" Cut="7.7737178802490234e+00" cType="1" res="-3.4332641959190369e-01" rms="3.6349272727966309e-01" purity="1.5667358040809631e-01" nType="0">
          <Node pos="l" depth="2" NCoef="0" IVar="7" Cut="1.0764323920011520e-01" cType="1" res="-4.0592902898788452e-01" rms="2.9192742705345154e-01" purity="9.4070971012115479e-02" nType="0">
            <Node pos="l" depth="3" NCoef="0" IVar="8" Cut="6.9627232849597931e-02" cType="1" res="-1.8236494064331055e-01" rms="4.6555668115615845e-01" purity="3.1763505935668945e-01" nType="0">
              <Node pos="l" depth="4" NCoef="0" IVar="-1" Cut="0.0000000000000000e+00" cType="1" res="7.1007190272212029e-03" rms="4.9644038081169128e-01" purity="5.5955624580383301e-01" nType="-99"/>
              <Node pos="r" depth="4" NCoef="0" IVar="-1" Cut="0.0000000000000000e+00" cType="1" res="-2.5435570627450943e-02" rms="3.6945489048957825e-01" purity="1.6309784352779388e-01" nType="-99"/>
            </Node>
            <Node pos="r" depth="3" NCoef="0" IVar="8" Cut="1.0446129739284515e-01" cType="1" res="-4.5410478115081787e-01" rms="2.0925785601139069e-01" purity="4.5895222574472427e-02" nType="0">
              <Node pos="l" depth="4" NCoef="0" IVar="-1" Cut="0.0000000000000000e+00" cType="1" res="-2.8171371668577194e-02" rms="3.1007504463195801e-01" purity="1.0775841772556305e-01" nType="-99"/>
              <Node pos="r" depth="4" NCoef="0" IVar="-1" Cut="0.0000000000000000e+00" cType="1" res="-3.2173860818147659e-02" rms="1.2455071508884430e-01" purity="1.5761299058794975e-02" nType="-99"/>
            </Node>
          </Node>
          <Node pos="r" depth="2" NCoef="0" IVar="12" Cut="9.7980701923370361e-01" cType="1" res="5.4767500609159470e-02" rms="4.9699145555496216e-01" purity="5.5476748943328857e-01" nType="0">
            <Node pos="l" depth="3" NCoef="0" IVar="-1" Cut="0.0000000000000000e+00" cType="1" res="-1.4660318382084370e-02" rms="4.7270965576171875e-01" purity="3.3707186579704285e-01" nType="-99"/>
            <Node pos="r" depth="3" NCoef="0" IVar="-1" Cut="0.0000000000000000e+00" cType="1" res="6.4694464206695557e-02" rms="3.7649887800216675e-01" purity="8.2901149988174438e-01" nType="-99"/>
          </Node>
        </Node>
        <Node pos="r" depth="1" NCoef="0" IVar="12" Cut="6.2161731719970703e-01" cType="1" res="3.5669526457786560e-01" rms="3.5038334131240845e-01" purity="8.5669523477554321e-01" nType="0">
          <Node pos="l" depth="2" NCoef="0" IVar="-1" Cut="0.0000000000000000e+00" cType="1" res="-2.2955672815442085e-02" rms="4.0645134449005127e-01" purity="2.0880024135112762e-01" nType="-99"/>
          <Node pos="r" depth="2" NCoef="0" IVar="8" Cut="1.7893746495246887e-01" cType="1" res="4.3726900219917297e-01" rms="2.4247848987579346e-01" purity="9.3726903200149536e-01" nType="0">
            <Node pos="l" depth="3" NCoef="0" IVar="12" Cut="9.1124808788299561e-01" cType="1" res="4.5814150571823120e-01" rms="2.0026573538780212e-01" purity="9.5814150571823120e-01" nType="0">
              <Node pos="l" depth="4" NCoef="0" IVar="-1" Cut="0.0000000000000000e+00" cType="1" res="5.1730830222368240e-02" rms="4.0825840830802917e-01" purity="7.8866082429885864e-01" nType="-99"/>
              <Node pos="r" depth="4" NCoef="0" IVar="-1" Cut="0.0000000000000000e+00" cType="1" res="1.4482030272483826e-01" rms="1.5342463552951813e-01" purity="9.7587907314300537e-01" nType="-99"/>
            </Node>
            <Node pos="r" depth="3" NCoef="0" IVar="-1" Cut="0.0000000000000000e+00" cType="1" res="1.2022733688354492e-02" rms="4.9078759551048279e-01" purity="5.9553813934326172e-01" nType="-99"/>
          </Node>
        </Node>
      </Node>
    </BinaryTree>
    <BinaryTree type="DecisionTree" boostWeight="1.0000000000000000e+00" itree="1">
      <Node pos="s" depth="0" NCoef="0" IVar="7" Cut="1.0764323920011520e-01" cType="1" res="-2.1893396973609924e-02" rms="4.6785587072372437e-01" purity="5.0003433227539062e-01" nType="0">
        <Node pos="l" depth="1" NCoef="0" IVar="12" Cut="7.5099551677703857e-01" cType="1" res="2.4983264505863190e-01" rms="3.7998029589653015e-01" purity="7.9597157239913940e-01" nType="0">
          <Node pos="l" depth="2" NCoef="0" IVar="12" Cut="2.1091437339782715e-01" cType="1" res="-2.5157094001770020e-01" rms="4.2498484253883362e-01" purity="2.4232704937458038e-01" nType="0">
            <Node pos="l" depth="3" NCoef="0" IVar="-1" Cut="0.0000000000000000e+00" cType="1" res="-2.7693878859281540e-02" rms="3.0499303340911865e-01" purity="1.0377670079469681e-01" nType="-99"/>
            <Node pos="r" depth="3" NCoef="0" IVar="-1" Cut="0.0000000000000000e+00" cType="1" res="-5.1201093010604382e-03" rms="4.9330073595046997e-01" purity="4.4907146692276001e-01" nType="-99"/>
          </Node>
          <Node pos="r" depth="2" NCoef="0" IVar="8" Cut="2.9837873578071594e-01" cType="1" res="3.4075748920440674e-01" rms="2.8975540399551392e-01" purity="8.9636981487274170e-01" nType="0">
            <Node pos="l" depth="3" NCoef="0" IVar="7" Cut="5.1946867257356644e-02" cType="1" res="3.8116455078125000e-01" rms="2.2738112509250641e-01" purity="9.4107031822204590e-01" nType="0">
              <Node pos="l" depth="4" NCoef="0" IVar="-1" Cut="0.0000000000000000e+00" cType="1" res="1.1842005699872971e-01" rms="1.8273805081844330e-01" purity="9.6321445703506470e-01" nType="-99"/>
              <Node pos="r" depth="4" NCoef="0" IVar="-1" Cut="0.0000000000000000e+00" cType="1" res="3.4454204142093658e-02" rms="4.2303127050399780e-01" purity="7.4687427282333374e-01" nType="-99"/>
            </Node>
            <Node pos="r" depth="3" NCoef="0" IVar="-1" Cut="0.0000000000000000e+00" cType="1" res="-1.7212586477398872e-02" rms="4.4903528690338135e-01" purity="2.9907765984535217e-01" nType="-99"/>
          </Node>
        </Node>
        <Node pos="r" depth="1" NCoef="0" IVar="5" Cut="9.4267835617065430e+00" cType="1" res="-4.0159246325492859e-01" rms="2.7505028247833252e-01" purity="8.6503453552722931e-02" nType="0">
          <Node pos="l" depth="2" NCoef="0" IVar="8" Cut="1.0444704443216324e-01" cType="1" res="-4.2848870158195496e-01" rms="2.3054079711437225e-01" purity="5.7804353535175323e-02" nType="0">
            <Node pos="l" depth="3" NCoef="0" IVar="12" Cut="8.6989009380340576e-01" cType="1" res="-3.5914590954780579e-01" rms="3.3209720253944397e-01" purity="1.2989677488803864e-01" nType="0">
              <Node pos="l" depth="4" NCoef="0" IVar="-1" Cut="0.0000000000000000e+00" cType="1" res="-2.9973957687616348e-02" rms="2.1248278021812439e-01" purity="4.7695755958557129e-02" nType="-99"/>
              <Node pos="r" depth="4" NCoef="0" IVar="-1" Cut="0.0000000000000000e+00" cType="1" res="-1.8788842484354973e-02" rms="4.3737524747848511e-01" purity="2.6871019601821899e-01" nType="-99"/>
            </Node>
            <Node pos="r" depth="3" NCoef="0" IVar="5" Cut="4.4084668159484863e+00" cType="1" res="-4.6405965089797974e-01" rms="1.4179623126983643e-01" purity="2.0822901278734207e-02" nType="0">
              <Node pos="l" depth="4" NCoef="0" IVar="-1" Cut="0.0000000000000000e+00" cType="1" res="-3.1466599553823471e-02" rms="8.9364774525165558e-02" purity="8.0854259431362152e-03" nType="-99"/>
              <Node pos="r" depth="4" NCoef="0" IVar="-1" Cut="0.0000000000000000e+00" cType="1" res="-2.9466122388839722e-02" rms="2.3613467812538147e-01" purity="6.0205716639757156e-02" nType="-99"/>
            </Node>
          </Node>
          <Node pos="r" depth="2" NCoef="0" IVar="-1" Cut="0.0000000000000000e+00" cType="1" res="-6.6144345328211784e-03" rms="4.8475176095962524e-01" purity="4.4611421227455139e-01" nType="-99"/>
        </Node>
      </Node>
    </BinaryTree>
    <BinaryTree type="DecisionTree" boostWeight="1.0000000000000000e+00" itree="2">
      <Node pos="s" depth="0" NCoef="0" IVar="6" Cut="8.3719509840011597e-01" cType="1" res="-3.9459306746721268e-02" rms="4.4097808003425598e-01" purity="4.9993270635604858e-01" nType="0">
        <Node pos="l" depth="1" NCoef="0" IVar="5" Cut="7.9094266891479492e+00" cType="1" res="-3.3086183667182922e-01" rms="3.4073403477668762e-01" purity="1.5041247010231018e-01" nType="0">
          <Node pos="l" depth="2" NCoef="0" IVar="7" Cut="1.2696011364459991e-01" cType="1" res="-3.8539466261863708e-01" rms="2.7694299817085266e-01" purity="9.0513102710247040e-02" nType="0">
            <Node pos="l" depth="3" NCoef="0" IVar="8" Cut="8.9525654911994934e-02" cType="1" res="-2.1267575025558472e-01" rms="4.3453425168991089e-01" purity="2.8656005859375000e-01" nType="0">
              <Node pos="l" depth="4" NCoef="0" IVar="-1" Cut="0.0000000000000000e+00" cType="1" res="-2.4022650904953480e-04" rms="4.8430985212326050e-01" purity="5.1538854837417603e-01" nType="-99"/>
              <Node pos="r" depth="4" NCoef="0" IVar="-1" Cut="0.0000000000000000e+00" cType="1" res="-2.6629814878106117e-02" rms="3.1601315736770630e-01" purity="1.2012464553117752e-01" nType="-99"/>
            </Node>
            <Node pos="r" depth="3" NCoef="0" IVar="8" Cut="9.9491998553276062e-02" cType="1" res="-4.2943704128265381e-01" rms="1.9636717438697815e-01" purity="4.0522176772356033e-02" nType="0">
              <Node pos="l" depth="4" NCoef="0" IVar="-1" Cut="0.0000000000000000e+00" cType="1" res="-2.6898486539721489e-02" rms="2.9332324862480164e-01" purity="9.5651336014270782e-02" nType="-99"/>
              <Node pos="r" depth="4" NCoef="0" IVar="-1" Cut="0.0000000000000000e+00" cType="1" res="-3.0228542163968086e-02" rms="1.2212830781936646e-01" purity="1.5178951434791088e-02" nType="-99"/>
            </Node>
          </Node>
          <Node pos="r" depth="2" NCoef="0" IVar="12" Cut="9.7977870702743530e-01" cType="1" res="4.1290517896413803e-02" rms="4.7560867667198181e-01" purity="5.5918824672698975e-01" nType="0">
            <Node pos="l" depth="3" NCoef="0" IVar="-1" Cut="0.0000000000000000e+00" cType="1" res="-1.4045928604900837e-02" rms="4.6271124482154846e-01" purity="3.3884412050247192e-01" nType="-99"/>
            <Node pos="r" depth="3" NCoef="0" IVar="-1" Cut="0.0000000000000000e+00" cType="1" res="5.7824891060590744e-02" rms="3.6369672417640686e-01" purity="8.3472973108291626e-01" nType="-99"/>
          </Node>
        </Node>
        <Node pos="r" depth="1" NCoef="0" IVar="12" Cut="4.9231648445129395e-01" cType="1" res="2.5217685103416443e-01" rms="3.2070440053939819e-01" purity="8.4973323345184326e-01" nType="0">
          <Node pos="l" depth="2" NCoef="0" IVar="-1" Cut="0.0000000000000000e+00" cType="1" res="-2.3715363815426826e-02" rms="3.6869093775749207e-01" purity="1.6367365419864655e-01" nType="-99"/>
          <Node pos="r" depth="2" NCoef="0" IVar="7" Cut="6.8789951503276825e-02" cType="1" res="3.1599166989326477e-01" rms="2.4282501637935638e-01" purity="9.2716580629348755e-01" nType="0">
            <Node pos="l" depth="3" NCoef="0" IVar="12" Cut="9.4415354728698730e-01" cType="1" res="3.3695450425148010e-01" rms="2.0093882083892822e-01" purity="9.5298284292221069e-01" nType="0">
              <Node pos="l" depth="4" NCoef="0" IVar="-1" Cut="0.0000000000000000e+00" cType="1" res="4.5724947005510330e-02" rms="3.7832725048065186e-01" purity="8.1181883811950684e-01" nType="-99"/>
              <Node pos="r" depth="4" NCoef="0" IVar="-1" Cut="0.0000000000000000e+00" cType="1" res="1.1607056856155396e-01" rms="1.4066012203693390e-01" purity="9.7831469774246216e-01" nType="-99"/>
            </Node>
            <Node pos="r" depth="3" NCoef="0" IVar="-1" Cut="0.0000000000000000e+00" cType="1" res="4.4959280639886856e-03" rms="4.7216773033142090e-01" purity="5.8243221044540405e-01" nType="-99"/>
          </Node>
        </Node>
      </Node>
    </BinaryTree>
    <BinaryTree type="DecisionTree" boostWeight="1.0000000000000000e+00" itree="3">
      <Node pos="s" depth="0" NCoef="0" IVar="7" Cut="8.4154173731803894e-02" cType="1" res="-5.3524773567914963e-02" rms="4.1782647371292114e-01" purity="5.0028538703918457e-01" nType="0">
        <Node pos="l" depth="1" NCoef="0" IVar="12" Cut="6.0176789760589600e-01" cType="1" res="1.9883500039577484e-01" rms="3.2730567455291748e-01" purity="8.2492858171463013e-01" nType="0">
          <Node pos="l" depth="2" NCoef="0" IVar="-1" Cut="0.0000000000000000e+00" cType="1" res="-2.0955258980393410e-02" rms="4.0068611502647400e-01" purity="2.0616748929023743e-01" nType="-99"/>
          <Node pos="r" depth="2" NCoef="0" IVar="8" Cut="2.7850893139839172e-01" cType="1" res="2.5828370451927185e-01" rms="2.6297768950462341e-01" purity="9.0417104959487915e-01" nType="0">
            <Node pos="l" depth="3" NCoef="0" IVar="12" Cut="8.9476168155670166e-01" cType="1" res="2.8850439190864563e-01" rms="2.1448999643325806e-01" purity="9.4450747966766357e-01" nType="0">
              <Node pos="l" depth="4" NCoef="0" IVar="-1" Cut="0.0000000000000000e+00" cType="1" res="2.7495278045535088e-02" rms="4.2980664968490601e-01" purity="7.3749893903732300e-01" nType="-99"/>
              <Node pos="r" depth="4" NCoef="0" IVar="-1" Cut="0.0000000000000000e+00" cType="1" res="9.8516330122947693e-02" rms="1.7474564909934998e-01" purity="9.6517282724380493e-01" nType="-99"/>
            </Node>
            <Node pos="r" depth="3" NCoef="0" IVar="-1" Cut="0.0000000000000000e+00" cType="1" res="-1.4857668429613113e-02" rms="4.4904977083206177e-01" purity="3.4143176674842834e-01" nType="-99"/>
          </Node>
        </Node>
        <Node pos="r" depth="1" NCoef="0" IVar="5" Cut="8.0900573730468750e+00" cType="1" res="-3.6131584644317627e-01" rms="2.9057702422142029e-01" purity="1.0433363914489746e-01" nType="0">
          <Node pos="l" depth="2" NCoef="0" IVar="8" Cut="9.9491998553276062e-02" cType="1" res="-3.9438387751579285e-01" rms="2.3976099491119385e-01" purity="6.5444543957710266e-02" nType="0">
            <Node pos="l" depth="3" NCoef="0" IVar="12" Cut="8.5996705293655396e-01" cType="1" res="-3.1720173358917236e-01" rms="3.4743916988372803e-01" purity="1.5131872892379761e-01" nType="0">
              <Node pos="l" depth="4" NCoef="0" IVar="-1" Cut="0.0000000000000000e+00" cType="1" res="-2.8126327320933342e-02" rms="2.2254073619842529e-01" purity="5.3584065288305283e-02" nType="-99"/>
              <Node pos="r" depth="4" NCoef="0" IVar="-1" Cut="0.0000000000000000e+00" cType="1" res="-1.5214629471302032e-02" rms="4.4743677973747253e-01" purity="3.0650901794433594e-01" nType="-99"/>
            </Node>
            <Node pos="r" depth="3" NCoef="0" IVar="5" Cut="4.3871226310729980e+00" cType="1" res="-4.3450760841369629e-01" rms="1.4109818637371063e-01" purity="2.0802197977900505e-02" nType="0">
              <Node pos="l" depth="4" NCoef="0" IVar="-1" Cut="0.0000000000000000e+00" cType="1" res="-2.9651191085577011e-02" rms="9.7535975277423859e-02" purity="9.7928792238235474e-03" nType="-99"/>
              <Node pos="r" depth="4" NCoef="0" IVar="-1" Cut="0.0000000000000000e+00" cType="1" res="-2.7847610414028168e-02" rms="2.2737969458103180e-01" purity="5.5919133126735687e-02" nType="-99"/>
            </Node>
          </Node>
          <Node pos="r" depth="2" NCoef="0" IVar="-1" Cut="0.0000000000000000e+00" cType="1" res="-9.6570588648319244e-03" rms="4.7018179297447205e-01" purity="4.1438123583793640e-01" nType="-99"/>
        </Node>
      </Node>
    </BinaryTree>
    <BinaryTree type="DecisionTree" boostWeight="1.0000000000000000e+00" itree="4">
      <Node pos="s" depth="0" NCoef="0" IVar="7" Cut="1.0764323920011520e-01" cType="1" res="-6.4964473247528076e-02" rms="3.9817550778388977e-01" purity="5.0033599138259888e-01" nType="0">
        <Node pos="l" depth="1" NCoef="0" IVar="12" Cut="5.6196194887161255e-01" cType="1" res="1.4819255471229553e-01" rms="3.3373725414276123e-01" purity="7.9607176780700684e-01" nType="0">
          <Node pos="l" depth="2" NCoef="0" IVar="-1" Cut="0.0000000000000000e+00" cType="1" res="-2.2171899676322937e-02" rms="3.7314549088478088e-01" purity="1.7023129761219025e-01" nType="-99"/>
          <Node pos="r" depth="2" NCoef="0" IVar="8" Cut="3.0834916234016418e-01" cType="1" res="2.0867016911506653e-01" rms="2.7820557355880737e-01" purity="8.8252747058868408e-01" nType="0">
            <Node pos="l" depth="3" NCoef="0" IVar="12" Cut="9.5613050460815430e-01" cType="1" res="2.4074040353298187e-01" rms="2.3466025292873383e-01" purity="9.2887771129608154e-01" nType="0">
              <Node pos="l" depth="4" NCoef="0" IVar="-1" Cut="0.0000000000000000e+00" cType="1" res="2.8548117727041245e-02" rms="3.9515227079391479e-01" purity="7.7413582801818848e-01" nType="-99"/>
              <Node pos="r" depth="4" NCoef="0" IVar="-1" Cut="0.0000000000000000e+00" cType="1" res="9.3649044632911682e-02" rms="1.6254049539566040e-01" purity="9.6906113624572754e-01" nType="-99"/>
            </Node>
            <Node pos="r" depth="3" NCoef="0" IVar="-1" Cut="0.0000000000000000e+00" cType="1" res="-1.7955679446458817e-02" rms="4.2416164278984070e-01" purity="2.7474763989448547e-01" nType="-99"/>
          </Node>
        </Node>
        <Node pos="r" depth="1" NCoef="0" IVar="5" Cut="8.0900573730468750e+00" cType="1" res="-3.6341527104377747e-01" rms="2.6812174916267395e-01" purity="8.6263053119182587e-02" nType="0">
          <Node pos="l" depth="2" NCoef="0" IVar="8" Cut="9.9491998553276062e-02" cType="1" res="-3.9132145047187805e-01" rms="2.1864426136016846e-01" purity="5.2513904869556427e-02" nType="0">
            <Node pos="l" depth="3" NCoef="0" IVar="12" Cut="8.3993834257125854e-01" cType="1" res="-3.2889553904533386e-01" rms="3.2232671976089478e-01" purity="1.2296764552593231e-01" nType="0">
              <Node pos="l" depth="4" NCoef="0" IVar="-1" Cut="0.0000000000000000e+00" cType="1" res="-2.7704780921339989e-02" rms="1.9952031970024109e-01" purity="4.1943643242120743e-02" nType="-99"/>
              <Node pos="r" depth="4" NCoef="0" IVar="-1" Cut="0.0000000000000000e+00" cType="1" res="-1.7699271440505981e-02" rms="4.2580109834671021e-01" purity="2.4821658432483673e-01" nType="-99"/>
            </Node>
            <Node pos="r" depth="3" NCoef="0" IVar="5" Cut="4.2261276245117188e+00" cType="1" res="-4.2192548513412476e-01" rms="1.3213910162448883e-01" purity="1.7974270507693291e-02" nType="0">
              <Node pos="l" depth="4" NCoef="0" IVar="-1" Cut="0.0000000000000000e+00" cType="1" res="-2.8895419090986252e-02" rms="8.8174156844615936e-02" purity="7.8864172101020813e-03" nType="-99"/>
              <Node pos="r" depth="4" NCoef="0" IVar="-1" Cut="0.0000000000000000e+00" cType="1" res="-2.7310742065310478e-02" rms="2.1188600361347198e-01" purity="4.7566898167133331e-02" nType="-99"/>
            </Node>
          </Node>
          <Node pos="r" depth="2" NCoef="0" IVar="-1" Cut="0.0000000000000000e+00" cType="1" res="-1.0312354192137718e-02" rms="4.6948978304862976e-01" purity="3.9689624309539795e-01" nType="-99"/>
        </Node>
      </Node>
    </BinaryTree>
    <BinaryTree type="DecisionTree" boostWeight="1.0000000000000000e+00" itree="5">
      <Node pos="s" depth="0" NCoef="0" IVar="6" Cut="8.3057248592376709e-01" cType="1" res="-7.4408881366252899e-02" rms="3.8148930668830872e-01" purity="4.9960929155349731e-01" nType="0">
        <Node pos="l" depth="1" NCoef="0" IVar="5" Cut="9.0399236679077148e+00" cType="1" res="-3.0961874127388000e-01" rms="3.1536546349525452e-01" purity="1.4446049928665161e-01" nType="0">
          <Node pos="l" depth="2" NCoef="0" IVar="7" Cut="1.2696011364459991e-01" cType="1" res="-3.5043448209762573e-01" rms="2.6761332154273987e-01" purity="9.3823611736297607e-02" nType="0">
            <Node pos="l" depth="3" NCoef="0" IVar="8" Cut="9.9465399980545044e-02" cType="1" res="-2.1067036688327789e-01" rms="4.1126623749732971e-01" purity="2.9030665755271912e-01" nType="0">
              <Node pos="l" depth="4" NCoef="0" IVar="-1" Cut="0.0000000000000000e+00" cType="1" res="-3.7143619265407324e-03" rms="4.6246042847633362e-01" purity="5.1220864057540894e-01" nType="-99"/>
              <Node pos="r" depth="4" NCoef="0" IVar="-1" Cut="0.0000000000000000e+00" cType="1" res="-2.5559604167938232e-02" rms="3.0408537387847900e-01" purity="1.2120425701141357e-01" nType="-99"/>
            </Node>
            <Node pos="r" depth="3" NCoef="0" IVar="3" Cut="4.1790872812271118e-02" cType="1" res="-3.8623321056365967e-01" rms="2.0087990164756775e-01" purity="4.3497074395418167e-02" nType="0">
              <Node pos="l" depth="4" NCoef="0" IVar="-1" Cut="0.0000000000000000e+00" cType="1" res="-2.3923434317111969e-02" rms="2.9953861236572266e-01" purity="1.0338355600833893e-01" nType="-99"/>
              <Node pos="r" depth="4" NCoef="0" IVar="-1" Cut="0.0000000000000000e+00" cType="1" res="-2.7698868885636330e-02" rms="1.4979688823223114e-01" purity="2.3613395169377327e-02" nType="-99"/>
            </Node>
          </Node>
          <Node pos="r" depth="2" NCoef="0" IVar="-1" Cut="0.0000000000000000e+00" cType="1" res="8.2766870036721230e-03" rms="4.4665685296058655e-01" purity="6.0727536678314209e-01" nType="-99"/>
        </Node>
        <Node pos="r" depth="1" NCoef="0" IVar="12" Cut="3.9284202456474304e-01" cType="1" res="1.5420079231262207e-01" rms="2.9032084345817566e-01" purity="8.4479224681854248e-01" nType="0">
          <Node pos="l" depth="2" NCoef="0" IVar="-1" Cut="0.0000000000000000e+00" cType="1" res="-2.2717688232660294e-02" rms="3.4616449475288391e-01" purity="1.3994684815406799e-01" nType="-99"/>
          <Node pos="r" depth="2" NCoef="0" IVar="8" Cut="2.0376196503639221e-01" cType="1" res="2.0273958146572113e-01" rms="2.3654477298259735e-01" purity="9.1957646608352661e-01" nType="0">
            <Node pos="l" depth="3" NCoef="0" IVar="3" Cut="2.1845001727342606e-02" cType="1" res="2.1811591088771820e-01" rms="2.0747032761573792e-01" purity="9.4395673274993896e-01" nType="0">
              <Node pos="l" depth="4" NCoef="0" IVar="-1" Cut="0.0000000000000000e+00" cType="1" res="8.1987686455249786e-02" rms="1.8445868790149689e-01" purity="9.5825552940368652e-01" nType="-99"/>
              <Node pos="r" depth="4" NCoef="0" IVar="-1" Cut="0.0000000000000000e+00" cType="1" res="1.3890612870454788e-02" rms="3.9868891239166260e-01" purity="7.2806501388549805e-01" nType="-99"/>
            </Node>
            <Node pos="r" depth="3" NCoef="0" IVar="-1" Cut="0.0000000000000000e+00" cType="1" res="-7.0383921265602112e-03" rms="4.5194330811500549e-01" purity="4.9878978729248047e-01" nType="-99"/>
          </Node>
        </Node>
      </Node>
    </BinaryTree>
    <BinaryTree type="DecisionTree" boostWeight="1.0000000000000000e+00" itree="6">
      <Node pos="s" depth="0" NCoef="0" IVar="7" Cut="9.0602219104766846e-02" cType="1" res="-8.1057131290435791e-02" rms="3.6727458238601685e-01" purity="4.9978914856910706e-01" nType="0">
        <Node pos="l" depth="1" NCoef="0" IVar="12" Cut="2.9331815242767334e-01" cType="1" res="1.1767693608999252e-01" rms="3.0299374461174011e-01" purity="8.1711620092391968e-01" nType="0">
          <Node pos="l" depth="2" NCoef="0" IVar="-1" Cut="0.0000000000000000e+00" cType="1" res="-2.3014819249510765e-02" rms="3.3141285181045532e-01" purity="1.2586209177970886e-01" nType="-99"/>
          <Node pos="r" depth="2" NCoef="0" IVar="8" Cut="2.9348102211952209e-01" cType="1" res="1.6009546816349030e-01" rms="2.6472517848014832e-01" purity="8.8569056987762451e-01" nType="0">
            <Node pos="l" depth="3" NCoef="0" IVar="9" Cut="2.7471308708190918e+00" cType="1" res="1.8534736335277557e-01" rms="2.2886037826538086e-01" purity="9.2960786819458008e-01" nType="0">
              <Node pos="l" depth="4" NCoef="0" IVar="-1" Cut="0.0000000000000000e+00" cType="1" res="7.1838378906250000e-02" rms="2.0131051540374756e-01" purity="9.4763642549514771e-01" nType="-99"/>
              <Node pos="r" depth="4" NCoef="0" IVar="-1" Cut="0.0000000000000000e+00" cType="1" res="1.7345182597637177e-02" rms="3.5894322395324707e-01" purity="7.9432410001754761e-01" nType="-99"/>
            </Node>
            <Node pos="r" depth="3" NCoef="0" IVar="-1" Cut="0.0000000000000000e+00" cType="1" res="-1.5570040792226791e-02" rms="4.2924132943153381e-01" purity="2.9684433341026306e-01" nType="-99"/>
          </Node>
        </Node>
        <Node pos="r" depth="1" NCoef="0" IVar="5" Cut="9.4267835617065430e+00" cType="1" res="-3.3254778385162354e-01" rms="2.7601864933967590e-01" purity="9.8223425447940826e-02" nType="0">
          <Node pos="l" depth="2" NCoef="0" IVar="8" Cut="1.2434464693069458e-01" cType="1" res="-3.5611954331398010e-01" rms="2.3800478875637054e-01" purity="6.7444756627082825e-02" nType="0">
            <Node pos="l" depth="3" NCoef="0" IVar="12" Cut="9.1976231336593628e-01" cType="1" res="-2.9121658205986023e-01" rms="3.3484697341918945e-01" purity="1.4556924998760223e-01" nType="0">
              <Node pos="l" depth="4" NCoef="0" IVar="-1" Cut="0.0000000000000000e+00" cType="1" res="-2.5574797764420509e-02" rms="2.4076446890830994e-01" purity="6.5255656838417053e-02" nType="-99"/>
              <Node pos="r" depth="4" NCoef="0" IVar="-1" Cut="0.0000000000000000e+00" cType="1" res="-1.2959228828549385e-02" rms="4.4214040040969849e-01" purity="3.1615266203880310e-01" nType="-99"/>
            </Node>
            <Node pos="r" depth="3" NCoef="0" IVar="5" Cut="4.4553651809692383e+00" cType="1" res="-3.9519667625427246e-01" rms="1.3849762082099915e-01" purity="2.0407119765877724e-02" nType="0">
              <Node pos="l" depth="4" NCoef="0" IVar="-1" Cut="0.0000000000000000e+00" cType="1" res="-2.7580281719565392e-02" rms="8.7235473096370697e-02" purity="7.8180860728025436e-03" nType="-99"/>
              <Node pos="r" depth="4" NCoef="0" IVar="-1" Cut="0.0000000000000000e+00" cType="1" res="-2.5823043659329414e-02" rms="2.3212654888629913e-01" purity="5.9464666992425919e-02" nType="-99"/>
            </Node>
          </Node>
          <Node pos="r" depth="2" NCoef="0" IVar="-1" Cut="0.0000000000000000e+00" cType="1" res="-6.2913526780903339e-03" rms="4.7041305899620056e-01" purity="4.5348972082138062e-01" nType="-99"/>
        </Node>
      </Node>
    </BinaryTree>
    <BinaryTree type="DecisionTree" boostWeight="1.0000000000000000e+00" itree="7">
      <Node pos="s" depth="0" NCoef="0" IVar="7" Cut="1.2696011364459991e-01" cType="1" res="-8.6505427956581116e-02" rms="3.5521346330642700e-01" purity="4.9941414594650269e-01" nType="0">
        <Node pos="l" depth="1" NCoef="0" IVar="12" Cut="7.9078525304794312e-01" cType="1" res="7.6442413032054901e-02" rms="3.1714066863059998e-01" purity="7.7465820312500000e-01" nType="0">
          <Node pos="l" depth="2" NCoef="0" IVar="12" Cut="1.3151106238365173e-01" cType="1" res="-2.2262014448642731e-01" rms="3.9522078633308411e-01" purity="2.4837960302829742e-01" nType="0">
            <Node pos="l" depth="3" NCoef="0" IVar="-1" Cut="0.0000000000000000e+00" cType="1" res="-2.4334894493222237e-02" rms="2.8286096453666687e-01" purity="8.7540313601493835e-02" nType="-99"/>
            <Node pos="r" depth="3" NCoef="0" IVar="-1" Cut="0.0000000000000000e+00" cType="1" res="-9.6256677061319351e-03" rms="4.5945027470588684e-01" purity="4.3060743808746338e-01" nType="-99"/>
          </Node>
          <Node pos="r" depth="2" NCoef="0" IVar="8" Cut="3.1331437826156616e-01" cType="1" res="1.3966834545135498e-01" rms="2.5673541426658630e-01" purity="8.8592070341110229e-01" nType="0">
            <Node pos="l" depth="3" NCoef="0" IVar="3" Cut="2.7802728116512299e-02" cType="1" res="1.6612681746482849e-01" rms="2.1940343081951141e-01" purity="9.3525242805480957e-01" nType="0">
              <Node pos="l" depth="4" NCoef="0" IVar="-1" Cut="0.0000000000000000e+00" cType="1" res="6.9012910127639771e-02" rms="1.9697558879852295e-01" purity="9.5135378837585449e-01" nType="-99"/>
              <Node pos="r" depth="4" NCoef="0" IVar="-1" Cut="0.0000000000000000e+00" cType="1" res="1.5413120854645967e-03" rms="4.2895671725273132e-01" purity="6.5657824277877808e-01" nType="-99"/>
            </Node>
            <Node pos="r" depth="3" NCoef="0" IVar="-1" Cut="0.0000000000000000e+00" cType="1" res="-1.6454739496111870e-02" rms="4.1220843791961670e-01" purity="2.6398152112960815e-01" nType="-99"/>
          </Node>
        </Node>
        <Node pos="r" depth="1" NCoef="0" IVar="5" Cut="6.2114210128784180e+00" cType="1" res="-3.3750328421592712e-01" rms="2.4841053783893585e-01" purity="7.5440056622028351e-02" nType="0">
          <Node pos="l" depth="2" NCoef="0" IVar="8" Cut="8.4563903510570526e-02" cType="1" res="-3.6758604645729065e-01" rms="1.8384252488613129e-01" purity="3.6692332476377487e-02" nType="0">
            <Node pos="l" depth="3" NCoef="0" IVar="-1" Cut="0.0000000000000000e+00" cType="1" res="-2.3557890206575394e-02" rms="2.8448614478111267e-01" purity="9.2812858521938324e-02" nType="-99"/>
            <Node pos="r" depth="3" NCoef="0" IVar="8" Cut="3.1225091218948364e-01" cType="1" res="-3.8687208294868469e-01" rms="1.1241992563009262e-01" purity="1.2989775277674198e-02" nType="0">
              <Node pos="l" depth="4" NCoef="0" IVar="-1" Cut="0.0000000000000000e+00" cType="1" res="-2.5956641882658005e-02" rms="1.7315222322940826e-01" purity="3.1465195119380951e-02" nType="-99"/>
              <Node pos="r" depth="4" NCoef="0" IVar="-1" Cut="0.0000000000000000e+00" cType="1" res="-2.7035577222704887e-02" rms="7.3232650756835938e-02" purity="5.4026641882956028e-03" nType="-99"/>
            </Node>
          </Node>
          <Node pos="r" depth="2" NCoef="0" IVar="-1" Cut="0.0000000000000000e+00" cType="1" res="-1.4942172914743423e-02" rms="4.2807742953300476e-01" purity="2.8944402933120728e-01" nType="-99"/>
        </Node>
      </Node>
    </BinaryTree>
    <BinaryTree type="DecisionTree" boostWeight="1.0000000000000000e+00" itree="8">
      <Node pos="s" depth="0" NCoef="0" IVar="6" Cut="8.2246613502502441e-01" cType="1" res="-9.0029917657375336e-02" rms="3.4416976571083069e-01" purity="5.0015634298324585e-01" nType="0">
        <Node pos="l" depth="1" NCoef="0" IVar="5" Cut="9.0691375732421875e+00" cType="1" res="-2.8687357902526855e-01" rms="2.9862806200981140e-01" purity="1.3963235914707184e-01" nType="0">
          <Node pos="l" depth="2" NCoef="0" IVar="8" Cut="1.3429722189903259e-01" cType="1" res="-3.2341504096984863e-01" rms="2.5370788574218750e-01" purity="8.9684374630451202e-02" nType="0">
            <Node pos="l" depth="3" NCoef="0" IVar="3" Cut="4.5770525932312012e-02" cType="1" res="-2.5063177943229675e-01" rms="3.4782060980796814e-01" purity="1.8953187763690948e-01" nType="0">
              <Node pos="l" depth="4" NCoef="0" IVar="-1" Cut="0.0000000000000000e+00" cType="1" res="-1.1875987052917480e-02" rms="4.2913946509361267e-01" purity="3.6532407999038696e-01" nType="-99"/>
              <Node pos="r" depth="4" NCoef="0" IVar="-1" Cut="0.0000000000000000e+00" cType="1" res="-2.4608731269836426e-02" rms="2.3773467540740967e-01" purity="6.5390966832637787e-02" nType="-99"/>
            </Node>
            <Node pos="r" depth="3" NCoef="0" IVar="5" Cut="4.7392511367797852e+00" cType="1" res="-3.6825737357139587e-01" rms="1.5560953319072723e-01" purity="2.8167586773633957e-02" nType="0">
              <Node pos="l" depth="4" NCoef="0" IVar="-1" Cut="0.0000000000000000e+00" cType="1" res="-2.6513904333114624e-02" rms="1.0473795235157013e-01" purity="1.1925185099244118e-02" nType="-99"/>
              <Node pos="r" depth="4" NCoef="0" IVar="-1" Cut="0.0000000000000000e+00" cType="1" res="-2.3793175816535950e-02" rms="2.6678764820098877e-01" purity="8.8986963033676147e-02" nType="-99"/>
            </Node>
          </Node>
          <Node pos="r" depth="2" NCoef="0" IVar="-1" Cut="0.0000000000000000e+00" cType="1" res="7.7568497508764267e-03" rms="4.3793040513992310e-01" purity="6.1157715320587158e-01" nType="-99"/>
        </Node>
        <Node pos="r" depth="1" NCoef="0" IVar="12" Cut="3.6295753717422485e-01" cType="1" res="9.3788467347621918e-02" rms="2.7534919977188110e-01" purity="8.3682429790496826e-01" nType="0">
          <Node pos="l" depth="2" NCoef="0" IVar="-1" Cut="0.0000000000000000e+00" cType="1" res="-2.1490696817636490e-02" rms="3.3090484142303467e-01" purity="1.2735185027122498e-01" nType="-99"/>
          <Node pos="r" depth="2" NCoef="0" IVar="8" Cut="1.2925496697425842e-01" cType="1" res="1.3465307652950287e-01" rms="2.3462589085102081e-01" purity="9.1345870494842529e-01" nType="0">
            <Node pos="l" depth="3" NCoef="0" IVar="12" Cut="8.5076725482940674e-01" cType="1" res="1.5260326862335205e-01" rms="1.9783169031143188e-01" purity="9.4744825363159180e-01" nType="0">
              <Node pos="l" depth="4" NCoef="0" IVar="-1" Cut="0.0000000000000000e+00" cType="1" res="9.3606263399124146e-03" rms="4.4129982590675354e-01" purity="6.7854821681976318e-01" nType="-99"/>
              <Node pos="r" depth="4" NCoef="0" IVar="-1" Cut="0.0000000000000000e+00" cType="1" res="7.5780868530273438e-02" rms="1.6096331179141998e-01" purity="9.6903604269027710e-01" nType="-99"/>
            </Node>
            <Node pos="r" depth="3" NCoef="0" IVar="-1" Cut="0.0000000000000000e+00" cType="1" res="-4.6426253393292427e-03" rms="4.1589701175689697e-01" purity="5.9449923038482666e-01" nType="-99"/>
          </Node>
        </Node>
      </Node>
    </BinaryTree>
    <BinaryTree type="DecisionTree" boostWeight="1.0000000000000000e+00" itree="9">
      <Node pos="s" depth="0" NCoef="0" IVar="7" Cut="1.2292151153087616e-01" cType="1" res="-9.3883000314235687e-02" rms="3.3425647020339966e-01" purity="4.9957358837127686e-01" nType="0">
        <Node pos="l" depth="1" NCoef="0" IVar="12" Cut="6.7136782407760620e-01" cType="1" res="5.2630785852670670e-02" rms="3.0188864469528198e-01" purity="7.7942734956741333e-01" nType="0">
          <Node pos="l" depth="2" NCoef="0" IVar="12" Cut="1.4755266904830933e-01" cType="1" res="-2.3813104629516602e-01" rms="3.7283161282539368e-01" purity="1.9489294290542603e-01" nType="0">
            <Node pos="l" depth="3" NCoef="0" IVar="-1" Cut="0.0000000000000000e+00" cType="1" res="-2.3025389760732651e-02" rms="2.8627684712409973e-01" purity="8.9843854308128357e-02" nType="-99"/>
            <Node pos="r" depth="3" NCoef="0" IVar="-1" Cut="0.0000000000000000e+00" cType="1" res="-9.9252415820956230e-03" rms="4.6251773834228516e-01" purity="3.8568356633186340e-01" nType="-99"/>
          </Node>
          <Node pos="r" depth="2" NCoef="0" IVar="8" Cut="3.1829589605331421e-01" cType="1" res="1.0144561529159546e-01" rms="2.5792294740676880e-01" purity="8.7756246328353882e-01" nType="0">
            <Node pos="l" depth="3" NCoef="0" IVar="10" Cut="-5.1067776679992676e+00" cType="1" res="1.2515307962894440e-01" rms="2.2659321129322052e-01" purity="9.2819458246231079e-01" nType="0">
              <Node pos="l" depth="4" NCoef="0" IVar="-1" Cut="0.0000000000000000e+00" cType="1" res="5.6367494165897369e-02" rms="2.0700472593307495e-01" purity="9.4199538230895996e-01" nType="-99"/>
              <Node pos="r" depth="4" NCoef="0" IVar="-1" Cut="0.0000000000000000e+00" cType="1" res="-2.1644092630594969e-03" rms="3.9342173933982849e-01" purity="7.2796481847763062e-01" nType="-99"/>
            </Node>
            <Node pos="r" depth="3" NCoef="0" IVar="-1" Cut="0.0000000000000000e+00" cType="1" res="-1.6280334442853928e-02" rms="4.0171650052070618e-01" purity="2.4881009757518768e-01" nType="-99"/>
          </Node>
        </Node>
        <Node pos="r" depth="1" NCoef="0" IVar="5" Cut="8.2177629470825195e+00" cType="1" res="-3.1486973166465759e-01" rms="2.4813598394393921e-01" purity="7.7470116317272186e-02" nType="0">
          <Node pos="l" depth="2" NCoef="0" IVar="8" Cut="9.9491998553276062e-02" cType="1" res="-3.3595153689384460e-01" rms="2.0407986640930176e-01" purity="4.6837225556373596e-02" nType="0">
            <Node pos="l" depth="3" NCoef="0" IVar="12" Cut="8.1035047769546509e-01" cType="1" res="-2.8790777921676636e-01" rms="3.0216330289840698e-01" purity="1.0933808237314224e-01" nType="0">
              <Node pos="l" depth="4" NCoef="0" IVar="-1" Cut="0.0000000000000000e+00" cType="1" res="-2.4967426434159279e-02" rms="1.8230150640010834e-01" purity="3.5031996667385101e-02" nType="-99"/>
              <Node pos="r" depth="4" NCoef="0" IVar="-1" Cut="0.0000000000000000e+00" cType="1" res="-1.6463458538055420e-02" rms="4.0014559030532837e-01" purity="2.1427185833454132e-01" nType="-99"/>
            </Node>
            <Node pos="r" depth="3" NCoef="0" IVar="5" Cut="4.1292715072631836e+00" cType="1" res="-3.5893467068672180e-01" rms="1.2752529978752136e-01" purity="1.6938123852014542e-02" nType="0">
              <Node pos="l" depth="4" NCoef="0" IVar="-1" Cut="0.0000000000000000e+00" cType="1" res="-2.5851996615529060e-02" rms="8.2663238048553467e-02" purity="6.9669913500547409e-03" nType="-99"/>
              <Node pos="r" depth="4" NCoef="0" IVar="-1" Cut="0.0000000000000000e+00" cType="1" res="-2.4341741576790810e-02" rms="2.0372684299945831e-01" purity="4.4304441660642624e-02" nType="-99"/>
            </Node>
          </Node>
          <Node pos="r" depth="2" NCoef="0" IVar="-1" Cut="0.0000000000000000e+00" cType="1" res="-9.5827141776680946e-03" rms="4.6296811103820801e-01" purity="3.9089137315750122e-01" nType="-99"/>
        </Node>
      </Node>
    </BinaryTree>
    <BinaryTree type="DecisionTree" boostWeight="1.0000000000000000e+00" itree="10">
      <Node pos="s" depth="0" NCoef="0" IVar="7" Cut="1.2292151153087616e-01" cType="1" res="-9.5700442790985107e-02" rms="3.2610449194908142e-01" purity="4.9968603253364563e-01" nType="0">
        <Node pos="l" depth="1" NCoef="0" IVar="12" Cut="8.2062113285064697e-01" cType="1" res="4.2621735483407974e-02" rms="2.9716390371322632e-01" purity="7.7991253137588501e-01" nType="0">
          <Node pos="l" depth="2" NCoef="0" IVar="12" Cut="1.5039117634296417e-01" cType="1" res="-1.9303517043590546e-01" rms="3.9433231949806213e-01" purity="2.7092546224594116e-01" nType="0">
            <Node pos="l" depth="3" NCoef="0" IVar="-1" Cut="0.0000000000000000e+00" cType="1" res="-2.2390183061361313e-02" rms="2.8718987107276917e-01" purity="9.0562410652637482e-02" nType="-99"/>
            <Node pos="r" depth="3" NCoef="0" IVar="1" Cut="9.4524848461151123e-01" cType="1" res="-8.1999458372592926e-02" rms="4.5386439561843872e-01" purity="4.5581156015396118e-01" nType="0">
              <Node pos="l" depth="4" NCoef="0" IVar="-1" Cut="0.0000000000000000e+00" cType="1" res="-4.5155142433941364e-03" rms="4.5247095823287964e-01" purity="5.0186997652053833e-01" nType="-99"/>
              <Node pos="r" depth="4" NCoef="0" IVar="-1" Cut="0.0000000000000000e+00" cType="1" res="-1.2435177341103554e-02" rms="4.5157390832901001e-01" purity="4.1339948773384094e-01" nType="-99"/>
            </Node>
          </Node>
          <Node pos="r" depth="2" NCoef="0" IVar="8" Cut="2.6358878612518311e-01" cType="1" res="9.5687508583068848e-02" rms="2.4053013324737549e-01" purity="8.9452755451202393e-01" nType="0">
            <Node pos="l" depth="3" NCoef="0" IVar="0" Cut="2.1746501922607422e+01" cType="1" res="1.1612098664045334e-01" rms="2.0529548823833466e-01" purity="9.4417452812194824e-01" nType="0">
              <Node pos="l" depth="4" NCoef="0" IVar="-1" Cut="0.0000000000000000e+00" cType="1" res="2.9540485702455044e-03" rms="3.8658744096755981e-01" purity="7.6486557722091675e-01" nType="-99"/>
              <Node pos="r" depth="4" NCoef="0" IVar="-1" Cut="0.0000000000000000e+00" cType="1" res="6.0761976987123489e-02" rms="1.8408662080764771e-01" purity="9.5666134357452393e-01" nType="-99"/>
            </Node>
            <Node pos="r" depth="3" NCoef="0" IVar="-1" Cut="0.0000000000000000e+00" cType="1" res="-1.2745955027639866e-02" rms="4.2203584313392639e-01" purity="3.2678994536399841e-01" nType="-99"/>
          </Node>
        </Node>
        <Node pos="r" depth="1" NCoef="0" IVar="5" Cut="8.0900573730468750e+00" cType="1" res="-3.0401021242141724e-01" rms="2.4759182333946228e-01" purity="7.7671810984611511e-02" nType="0">
          <Node pos="l" depth="2" NCoef="0" IVar="3" Cut="5.3731121122837067e-02" cType="1" res="-3.2510870695114136e-01" rms="2.0251353085041046e-01" purity="4.6162113547325134e-02" nType="0">
            <Node pos="l" depth="3" NCoef="0" IVar="-1" Cut="0.0000000000000000e+00" cType="1" res="-2.1008161827921867e-02" rms="2.9264917969703674e-01" purity="1.0291977226734161e-01" nType="-99"/>
            <Node pos="r" depth="3" NCoef="0" IVar="9" Cut="1.8757340908050537e+00" cType="1" res="-3.4539037942886353e-01" rms="1.4732106029987335e-01" purity="2.3437727242708206e-02" nType="0">
              <Node pos="l" depth="4" NCoef="0" IVar="-1" Cut="0.0000000000000000e+00" cType="1" res="-2.3908851668238640e-02" rms="2.0402088761329651e-01" purity="4.5944761484861374e-02" nType="-99"/>
              <Node pos="r" depth="4" NCoef="0" IVar="-1" Cut="0.0000000000000000e+00" cType="1" res="-2.5485897436738014e-02" rms="8.5515655577182770e-02" purity="7.6024709269404411e-03" nType="-99"/>
            </Node>
          </Node>
          <Node pos="r" depth="2" NCoef="0" IVar="-1" Cut="0.0000000000000000e+00" cType="1" res="-9.2755313962697983e-03" rms="4.6216800808906555e-01" purity="3.8808539509773254e-01" nType="-99"/>
        </Node>
      </Node>
    </BinaryTree>
    <BinaryTree type="DecisionTree" boostWeight="1.0000000000000000e+00" itree="11">
      <Node pos="s" depth="0" NCoef="0" IVar="6" Cut="8.5192412137985229e-01" cType="1" res="-9.7053259611129761e-02" rms="3.1878402829170227e-01" purity="4.9976480007171631e-01" nType="0">
        <Node pos="l" depth="1" NCoef="0" IVar="5" Cut="7.5886807441711426e+00" cType="1" res="-2.5157549977302551e-01" rms="2.9947030544281006e-01" purity="1.6256436705589294e-01" nType="0">
          <Node pos="l" depth="2" NCoef="0" IVar="8" Cut="1.0943359881639481e-01" cType="1" res="-2.9363250732421875e-01" rms="2.4876186251640320e-01" purity="9.6447363495826721e-02" nType="0">
            <Node pos="l" depth="3" NCoef="0" IVar="3" Cut="4.3776709586381912e-02" cType="1" res="-2.1835373342037201e-01" rms="3.4588271379470825e-01" purity="2.1471543610095978e-01" nType="0">
              <Node pos="l" depth="4" NCoef="0" IVar="-1" Cut="0.0000000000000000e+00" cType="1" res="-1.0722927749156952e-02" rms="4.1773432493209839e-01" purity="3.9973849058151245e-01" nType="-99"/>
              <Node pos="r" depth="4" NCoef="0" IVar="-1" Cut="0.0000000000000000e+00" cType="1" res="-2.3004656657576561e-02" rms="2.4328061938285828e-01" purity="7.2302199900150299e-02" nType="-99"/>
            </Node>
            <Node pos="r" depth="3" NCoef="0" IVar="5" Cut="4.6460032463073730e+00" cType="1" res="-3.3632132411003113e-01" rms="1.5523064136505127e-01" purity="2.9380317777395248e-02" nType="0">
              <Node pos="l" depth="4" NCoef="0" IVar="-1" Cut="0.0000000000000000e+00" cType="1" res="-2.5104658678174019e-02" rms="1.1613013595342636e-01" purity="1.5345086343586445e-02" nType="-99"/>
              <Node pos="r" depth="4" NCoef="0" IVar="-1" Cut="0.0000000000000000e+00" cType="1" res="-2.2661862894892693e-02" rms="2.5241678953170776e-01" purity="8.4225110709667206e-02" nType="-99"/>
            </Node>
          </Node>
          <Node pos="r" depth="2" NCoef="0" IVar="12" Cut="9.6986007690429688e-01" cType="1" res="-6.3936715014278889e-03" rms="4.2582121491432190e-01" purity="5.4800987243652344e-01" nType="0">
            <Node pos="l" depth="3" NCoef="0" IVar="-1" Cut="0.0000000000000000e+00" cType="1" res="-1.7313050106167793e-02" rms="4.0274482965469360e-01" purity="2.8205105662345886e-01" nType="-99"/>
            <Node pos="r" depth="3" NCoef="0" IVar="-1" Cut="0.0000000000000000e+00" cType="1" res="3.7563160061836243e-02" rms="3.5963344573974609e-01" purity="8.0867296457290649e-01" nType="-99"/>
          </Node>
        </Node>
        <Node pos="r" depth="1" NCoef="0" IVar="12" Cut="4.8233580589294434e-01" cType="1" res="6.9622978568077087e-02" rms="2.4691514670848846e-01" purity="8.6348783969879150e-01" nType="0">
          <Node pos="l" depth="2" NCoef="0" IVar="-1" Cut="0.0000000000000000e+00" cType="1" res="-1.7651671543717384e-02" rms="3.6590522527694702e-01" purity="1.7096176743507385e-01" nType="-99"/>
          <Node pos="r" depth="2" NCoef="0" IVar="7" Cut="5.8327615261077881e-02" cType="1" res="9.9732093513011932e-02" rms="2.0919486880302429e-01" purity="9.3567258119583130e-01" nType="0">
            <Node pos="l" depth="3" NCoef="0" IVar="10" Cut="-5.2126259803771973e+00" cType="1" res="1.1038850247859955e-01" rms="1.7920589447021484e-01" purity="9.5882660150527954e-01" nType="0">
              <Node pos="l" depth="4" NCoef="0" IVar="-1" Cut="0.0000000000000000e+00" cType="1" res="6.8397618830204010e-02" rms="1.5630668401718140e-01" purity="9.7093796730041504e-01" nType="-99"/>
              <Node pos="r" depth="4" NCoef="0" IVar="-1" Cut="0.0000000000000000e+00" cType="1" res="1.1235525831580162e-02" rms="3.4501248598098755e-01" purity="8.1409269571304321e-01" nType="-99"/>
            </Node>
            <Node pos="r" depth="3" NCoef="0" IVar="-1" Cut="0.0000000000000000e+00" cType="1" res="-4.3964022770524025e-03" rms="4.0596225857734680e-01" purity="6.6048681735992432e-01" nType="-99"/>
          </Node>
        </Node>
      </Node>
    </BinaryTree>
    <BinaryTree type="DecisionTree" boostWeight="1.0000000000000000e+00" itree="12">
      <Node pos="s" depth="0" NCoef="0" IVar="7" Cut="8.7844297289848328e-02" cType="1" res="-9.8326727747917175e-02" rms="3.1127941608428955e-01" purity="5.0001150369644165e-01" nType="0">
        <Node pos="l" depth="1" NCoef="0" IVar="12" Cut="3.0330881476402283e-01" cType="1" res="4.2869370430707932e-02" rms="2.7175858616828918e-01" purity="8.2006019353866577e-01" nType="0">
          <Node pos="l" depth="2" NCoef="0" IVar="-1" Cut="0.0000000000000000e+00" cType="1" res="-1.9189124926924706e-02" rms="3.3479920029640198e-01" purity="1.3026447594165802e-01" nType="-99"/>
          <Node pos="r" depth="2" NCoef="0" IVar="8" Cut="2.4373847246170044e-01" cType="1" res="7.1243628859519958e-02" rms="2.4720109999179840e-01" purity="8.8801693916320801e-01" nType="0">
            <Node pos="l" depth="3" NCoef="0" IVar="7" Cut="3.9332855492830276e-02" cType="1" res="8.8607408106327057e-02" rms="2.1734543144702911e-01" purity="9.3470197916030884e-01" nType="0">
              <Node pos="l" depth="4" NCoef="0" IVar="-1" Cut="0.0000000000000000e+00" cType="1" res="5.5134560912847519e-02" rms="1.8401278555393219e-01" purity="9.5654898881912231e-01" nType="-99"/>
              <Node pos="r" depth="4" NCoef="0" IVar="-1" Cut="0.0000000000000000e+00" cType="1" res="4.5175636187195778e-03" rms="3.6170816421508789e-01" purity="7.8901839256286621e-01" nType="-99"/>
            </Node>
            <Node pos="r" depth="3" NCoef="0" IVar="-1" Cut="0.0000000000000000e+00" cType="1" res="-1.2188726104795933e-02" rms="4.2001748085021973e-01" purity="3.5709035396575928e-01" nType="-99"/>
          </Node>
        </Node>
        <Node pos="r" depth="1" NCoef="0" IVar="5" Cut="9.4267835617065430e+00" cType="1" res="-2.7428644895553589e-01" rms="2.6420360803604126e-01" purity="1.0116413235664368e-01" nType="0">
          <Node pos="l" depth="2" NCoef="0" IVar="8" Cut="1.2435868382453918e-01" cType="1" res="-2.9357787966728210e-01" rms="2.3040178418159485e-01" purity="6.9447875022888184e-02" nType="0">
            <Node pos="l" depth="3" NCoef="0" IVar="12" Cut="9.2970907688140869e-01" cType="1" res="-2.3894076049327850e-01" rms="3.2375806570053101e-01" purity="1.4998330175876617e-01" nType="0">
              <Node pos="l" depth="4" NCoef="0" IVar="-1" Cut="0.0000000000000000e+00" cType="1" res="-2.2490324452519417e-02" rms="2.4238237738609314e-01" purity="6.9819785654544830e-02" nType="-99"/>
              <Node pos="r" depth="4" NCoef="0" IVar="-1" Cut="0.0000000000000000e+00" cType="1" res="-9.8891844972968102e-03" rms="4.2958998680114746e-01" purity="3.3464950323104858e-01" nType="-99"/>
            </Node>
            <Node pos="r" depth="3" NCoef="0" IVar="9" Cut="2.0368242263793945e+00" cType="1" res="-3.2672819495201111e-01" rms="1.3706105947494507e-01" purity="2.0584126934409142e-02" nType="0">
              <Node pos="l" depth="4" NCoef="0" IVar="-1" Cut="0.0000000000000000e+00" cType="1" res="-2.2955356165766716e-02" rms="1.9833171367645264e-01" purity="4.4292256236076355e-02" nType="-99"/>
              <Node pos="r" depth="4" NCoef="0" IVar="-1" Cut="0.0000000000000000e+00" cType="1" res="-2.4570837616920471e-02" rms="1.0397742688655853e-01" purity="1.1666342616081238e-02" nType="-99"/>
            </Node>
          </Node>
          <Node pos="r" depth="2" NCoef="0" IVar="-1" Cut="0.0000000000000000e+00" cType="1" res="-6.2225931324064732e-03" rms="4.5389768481254578e-01" purity="4.5568811893463135e-01" nType="-99"/>
        </Node>
      </Node>
    </BinaryTree>
    <BinaryTree type="DecisionTree" boostWeight="1.0000000000000000e+00" itree="13">
      <Node pos="s" depth="0" NCoef="0" IVar="7" Cut="1.2292151153087616e-01" cType="1" res="-9.8317258059978485e-02" rms="3.0533760786056519e-01" purity="5.0025498867034912e-01" nType="0">
        <Node pos="l" depth="1" NCoef="0" IVar="12" Cut="8.3055263757705688e-01" cType="1" res="1.8254239112138748e-02" rms="2.8492984175682068e-01" purity="7.7940624952316284e-01" nType="0">
          <Node pos="l" depth="2" NCoef="0" IVar="12" Cut="1.4753095805644989e-01" cType="1" res="-1.7966134846210480e-01" rms="3.8519790768623352e-01" purity="2.7859568595886230e-01" nType="0">
            <Node pos="l" depth="3" NCoef="0" IVar="-1" Cut="0.0000000000000000e+00" cType="1" res="-2.0957866683602333e-02" rms="2.8581297397613525e-01" purity="8.9675635099411011e-02" nType="-99"/>
            <Node pos="r" depth="3" NCoef="0" IVar="9" Cut="1.3941075801849365e+00" cType="1" res="-8.7713316082954407e-02" rms="4.4293317198753357e-01" purity="4.6258494257926941e-01" nType="0">
              <Node pos="l" depth="4" NCoef="0" IVar="-1" Cut="0.0000000000000000e+00" cType="1" res="4.8752669245004654e-03" rms="4.4392672181129456e-01" purity="6.2769585847854614e-01" nType="-99"/>
              <Node pos="r" depth="4" NCoef="0" IVar="-1" Cut="0.0000000000000000e+00" cType="1" res="-1.7300752922892570e-02" rms="4.1865998506546021e-01" purity="3.3512336015701294e-01" nType="-99"/>
            </Node>
          </Node>
          <Node pos="r" depth="2" NCoef="0" IVar="8" Cut="2.2878585755825043e-01" cType="1" res="6.4278237521648407e-02" rms="2.3309391736984253e-01" purity="8.9586657285690308e-01" nType="0">
            <Node pos="l" depth="3" NCoef="0" IVar="12" Cut="9.7274976968765259e-01" cType="1" res="8.2139216363430023e-02" rms="1.9802170991897583e-01" purity="9.4838047027587891e-01" nType="0">
              <Node pos="l" depth="4" NCoef="0" IVar="-1" Cut="0.0000000000000000e+00" cType="1" res="1.3935111463069916e-02" rms="3.1438589096069336e-01" purity="8.6075836420059204e-01" nType="-99"/>
              <Node pos="r" depth="4" NCoef="0" IVar="-1" Cut="0.0000000000000000e+00" cType="1" res="6.7066423594951630e-02" rms="1.3959324359893799e-01" purity="9.7632920742034912e-01" nType="-99"/>
            </Node>
            <Node pos="r" depth="3" NCoef="0" IVar="-1" Cut="0.0000000000000000e+00" cType="1" res="-1.1428382247686386e-02" rms="4.1331738233566284e-01" purity="3.6830216646194458e-01" nType="-99"/>
          </Node>
        </Node>
        <Node pos="r" depth="1" NCoef="0" IVar="5" Cut="8.0900573730468750e+00" cType="1" res="-2.7454257011413574e-01" rms="2.4462881684303284e-01" purity="7.8251972794532776e-02" nType="0">
          <Node pos="l" depth="2" NCoef="0" IVar="8" Cut="8.9531488716602325e-02" cType="1" res="-2.9355710744857788e-01" rms="2.0212501287460327e-01" purity="4.6562511473894119e-02" nType="0">
            <Node pos="l" depth="3" NCoef="0" IVar="12" Cut="8.3010721206665039e-01" cType="1" res="-2.4722644686698914e-01" rms="3.0301141738891602e-01" purity="1.1154589802026749e-01" nType="0">
              <Node pos="l" depth="4" NCoef="0" IVar="-1" Cut="0.0000000000000000e+00" cType="1" res="-2.2988220676779747e-02" rms="1.8727034330368042e-01" purity="3.7284120917320251e-02" nType="-99"/>
              <Node pos="r" depth="4" NCoef="0" IVar="-1" Cut="0.0000000000000000e+00" cType="1" res="-1.3533868826925755e-02" rms="4.0530601143836975e-01" purity="2.2369331121444702e-01" nType="-99"/>
            </Node>
            <Node pos="r" depth="3" NCoef="0" IVar="5" Cut="4.1858787536621094e+00" cType="1" res="-3.1406813859939575e-01" rms="1.3008622825145721e-01" purity="1.7793735489249229e-02" nType="0">
              <Node pos="l" depth="4" NCoef="0" IVar="-1" Cut="0.0000000000000000e+00" cType="1" res="-2.4032743647694588e-02" rms="8.7611675262451172e-02" purity="7.8999120742082596e-03" nType="-99"/>
              <Node pos="r" depth="4" NCoef="0" IVar="-1" Cut="0.0000000000000000e+00" cType="1" res="-2.2306023165583611e-02" rms="2.0700985193252563e-01" purity="4.6191420406103134e-02" nType="-99"/>
            </Node>
          </Node>
          <Node pos="r" depth="2" NCoef="0" IVar="-1" Cut="0.0000000000000000e+00" cType="1" res="-8.5286637768149376e-03" rms="4.5609313249588013e-01" purity="3.8978409767150879e-01" nType="-99"/>
        </Node>
      </Node>
    </BinaryTree>
    <BinaryTree type="DecisionTree" boostWeight="1.0000000000000000e+00" itree="14">
      <Node pos="s" depth="0" NCoef="0" IVar="7" Cut="1.0764323920011520e-01" cType="1" res="-9.8516017198562622e-02" rms="2.9977846145629883e-01" purity="5.0021851062774658e-01" nType="0">
        <Node pos="l" depth="1" NCoef="0" IVar="12" Cut="8.6042732000350952e-01" cType="1" res="1.8301045522093773e-02" rms="2.7614143490791321e-01" purity="7.9649537801742554e-01" nType="0">
          <Node pos="l" depth="2" NCoef="0" IVar="12" Cut="2.1254900097846985e-01" cType="1" res="-1.5468424558639526e-01" rms="3.9295166730880737e-01" purity="3.2260972261428833e-01" nType="0">
            <Node pos="l" depth="3" NCoef="0" IVar="-1" Cut="0.0000000000000000e+00" cType="1" res="-1.9567871466279030e-02" rms="3.0661651492118835e-01" purity="1.0556650161743164e-01" nType="-99"/>
            <Node pos="r" depth="3" NCoef="0" IVar="6" Cut="9.1930335760116577e-01" cType="1" res="-7.0975393056869507e-02" rms="4.3890085816383362e-01" purity="5.1374280452728271e-01" nType="0">
              <Node pos="l" depth="4" NCoef="0" IVar="-1" Cut="0.0000000000000000e+00" cType="1" res="-1.6391277313232422e-02" rms="4.2837467789649963e-01" purity="3.5682708024978638e-01" nType="-99"/>
              <Node pos="r" depth="4" NCoef="0" IVar="-1" Cut="0.0000000000000000e+00" cType="1" res="1.0421562008559704e-02" rms="4.1920405626296997e-01" purity="7.2190326452255249e-01" nType="-99"/>
            </Node>
          </Node>
          <Node pos="r" depth="2" NCoef="0" IVar="10" Cut="-5.0234732627868652e+00" cType="1" res="6.0273759067058563e-02" rms="2.1969963610172272e-01" purity="9.1147780418395996e-01" nType="0">
            <Node pos="l" depth="3" NCoef="0" IVar="5" Cut="8.2690591812133789e+00" cType="1" res="7.2171688079833984e-02" rms="1.9980402290821075e-01" purity="9.3553042411804199e-01" nType="0">
              <Node pos="l" depth="4" NCoef="0" IVar="-1" Cut="0.0000000000000000e+00" cType="1" res="7.7166678383946419e-03" rms="2.8268221020698547e-01" purity="8.3745962381362915e-01" nType="-99"/>
              <Node pos="r" depth="4" NCoef="0" IVar="-1" Cut="0.0000000000000000e+00" cType="1" res="6.8940818309783936e-02" rms="1.4732250571250916e-01" purity="9.7690844535827637e-01" nType="-99"/>
            </Node>
            <Node pos="r" depth="3" NCoef="0" IVar="-1" Cut="0.0000000000000000e+00" cType="1" res="-1.6232807189226151e-02" rms="3.7005588412284851e-01" purity="5.6582093238830566e-01" nType="-99"/>
          </Node>
        </Node>
        <Node pos="r" depth="1" NCoef="0" IVar="5" Cut="9.3171310424804688e+00" cType="1" res="-2.6169130206108093e-01" rms="2.5138533115386963e-01" purity="8.6365886032581329e-02" nType="0">
          <Node pos="l" depth="2" NCoef="0" IVar="3" Cut="4.3780308216810226e-02" cType="1" res="-2.7865713834762573e-01" rms="2.1751895546913147e-01" purity="5.7659536600112915e-02" nType="0">
            <Node pos="l" depth="3" NCoef="0" IVar="9" Cut="1.7553130388259888e+00" cType="1" res="-2.2134660184383392e-01" rms="3.1208586692810059e-01" purity="1.3004761934280396e-01" nType="0">
              <Node pos="l" depth="4" NCoef="0" IVar="-1" Cut="0.0000000000000000e+00" cType="1" res="-1.1362886987626553e-02" rms="4.0044203400611877e-01" purity="2.4352332949638367e-01" nType="-99"/>
              <Node pos="r" depth="4" NCoef="0" IVar="-1" Cut="0.0000000000000000e+00" cType="1" res="-2.2151704877614975e-02" rms="2.0877417922019958e-01" purity="5.2015133202075958e-02" nType="-99"/>
            </Node>
            <Node pos="r" depth="3" NCoef="0" IVar="9" Cut="1.8708076477050781e+00" cType="1" res="-3.0058717727661133e-01" rms="1.6251863539218903e-01" purity="2.9960023239254951e-02" nType="0">
              <Node pos="l" depth="4" NCoef="0" IVar="-1" Cut="0.0000000000000000e+00" cType="1" res="-2.1710263565182686e-02" rms="2.2274614870548248e-01" purity="5.8024816215038300e-02" nType="-99"/>
              <Node pos="r" depth="4" NCoef="0" IVar="-1" Cut="0.0000000000000000e+00" cType="1" res="-2.3821402341127396e-02" rms="9.6555396914482117e-02" purity="9.9085066467523575e-03" nType="-99"/>
            </Node>
          </Node>
          <Node pos="r" depth="2" NCoef="0" IVar="-1" Cut="0.0000000000000000e+00" cType="1" res="-5.3905183449387550e-03" rms="4.6030968427658081e-01" purity="4.4098469614982605e-01" nType="-99"/>
        </Node>
      </Node>
    </BinaryTree>
    <BinaryTree type="DecisionTree" boostWeight="1.0000000000000000e+00" itree="15">
      <Node pos="s" depth="0" NCoef="0" IVar="7" Cut="7.9358227550983429e-02" cType="1" res="-9.8547622561454773e-02" rms="2.9431232810020447e-01" purity="4.9943926930427551e-01" nType="0">
        <Node pos="l" depth="1" NCoef="0" IVar="12" Cut="3.5304480791091919e-01" cType="1" res="2.6616454124450684e-02" rms="2.5842505693435669e-01" purity="8.2992976903915405e-01" nType="0">
          <Node pos="l" depth="2" NCoef="0" IVar="-1" Cut="0.0000000000000000e+00" cType="1" res="-1.6983123496174812e-02" rms="3.4652927517890930e-01" purity="1.4477065205574036e-01" nType="-99"/>
          <Node pos="r" depth="2" NCoef="0" IVar="9" Cut="3.1841061115264893e+00" cType="1" res="4.9575798213481903e-02" rms="2.3591122031211853e-01" purity="8.9704561233520508e-01" nType="0">
            <Node pos="l" depth="3" NCoef="0" IVar="7" Cut="3.1190397217869759e-02" cType="1" res="6.7217610776424408e-02" rms="2.0555150508880615e-01" purity="9.3555492162704468e-01" nType="0">
              <Node pos="l" depth="4" NCoef="0" IVar="-1" Cut="0.0000000000000000e+00" cType="1" res="5.0541609525680542e-02" rms="1.7202325165271759e-01" purity="9.5937395095825195e-01" nType="-99"/>
              <Node pos="r" depth="4" NCoef="0" IVar="-1" Cut="0.0000000000000000e+00" cType="1" res="6.1851735226809978e-03" rms="3.2138073444366455e-01" purity="8.1613218784332275e-01" nType="-99"/>
            </Node>
            <Node pos="r" depth="3" NCoef="0" IVar="5" Cut="1.0447914123535156e+01" cType="1" res="-8.1755943596363068e-02" rms="3.6859646439552307e-01" purity="6.1036920547485352e-01" nType="0">
              <Node pos="l" depth="4" NCoef="0" IVar="-1" Cut="0.0000000000000000e+00" cType="1" res="-2.2389864549040794e-02" rms="3.7229263782501221e-01" purity="3.9044061303138733e-01" nType="-99"/>
              <Node pos="r" depth="4" NCoef="0" IVar="-1" Cut="0.0000000000000000e+00" cType="1" res="1.6599571332335472e-02" rms="3.1373527646064758e-01" purity="8.5163617134094238e-01" nType="-99"/>
            </Node>
          </Node>
        </Node>
        <Node pos="r" depth="1" NCoef="0" IVar="3" Cut="3.7810277193784714e-02" cType="1" res="-2.4644772708415985e-01" rms="2.6395642757415771e-01" purity="1.0891523957252502e-01" nType="0">
          <Node pos="l" depth="2" NCoef="0" IVar="12" Cut="9.5980906486511230e-01" cType="1" res="-1.5819087624549866e-01" rms="3.6159449815750122e-01" purity="2.4335470795631409e-01" nType="0">
            <Node pos="l" depth="3" NCoef="0" IVar="-1" Cut="0.0000000000000000e+00" cType="1" res="-1.9819345325231552e-02" rms="2.9453396797180176e-01" purity="1.1764993518590927e-01" nType="-99"/>
            <Node pos="r" depth="3" NCoef="0" IVar="-1" Cut="0.0000000000000000e+00" cType="1" res="3.3092214725911617e-03" rms="4.1807112097740173e-01" purity="5.1207107305526733e-01" nType="-99"/>
          </Node>
          <Node pos="r" depth="2" NCoef="0" IVar="9" Cut="2.1096026897430420e+00" cType="1" res="-2.8800439834594727e-01" rms="1.8846578896045685e-01" purity="4.5612964779138565e-02" nType="0">
            <Node pos="l" depth="3" NCoef="0" IVar="12" Cut="9.2956578731536865e-01" cType="1" res="-2.6294153928756714e-01" rms="2.4760223925113678e-01" purity="8.2609035074710846e-02" nType="0">
              <Node pos="l" depth="4" NCoef="0" IVar="-1" Cut="0.0000000000000000e+00" cType="1" res="-2.2593434900045395e-02" rms="1.8591463565826416e-01" purity="3.9111360907554626e-02" nType="-99"/>
              <Node pos="r" depth="4" NCoef="0" IVar="-1" Cut="0.0000000000000000e+00" cType="1" res="-1.7770968377590179e-02" rms="3.2402026653289795e-01" purity="1.6090381145477295e-01" nType="-99"/>
            </Node>
            <Node pos="r" depth="3" NCoef="0" IVar="9" Cut="3.8386125564575195e+00" cType="1" res="-3.1009915471076965e-01" rms="1.0836900770664215e-01" purity="1.2998240068554878e-02" nType="0">
              <Node pos="l" depth="4" NCoef="0" IVar="-1" Cut="0.0000000000000000e+00" cType="1" res="-2.3428248241543770e-02" rms="1.3870711624622345e-01" purity="2.2663379088044167e-02" nType="-99"/>
              <Node pos="r" depth="4" NCoef="0" IVar="-1" Cut="0.0000000000000000e+00" cType="1" res="-2.3981429636478424e-02" rms="7.8296229243278503e-02" purity="5.8118039742112160e-03" nType="-99"/>
            </Node>
          </Node>
        </Node>
      </Node>
    </BinaryTree>
    <BinaryTree type="DecisionTree" boostWeight="1.0000000000000000e+00" itree="16">
      <Node pos="s" depth="0" NCoef="0" IVar="6" Cut="8.1510162353515625e-01" cType="1" res="-9.7361259162425995e-02" rms="2.8965002298355103e-01" purity="4.9974918365478516e-01" nType="0">
        <Node pos="l" depth="1" NCoef="0" IVar="5" Cut="1.0324727058410645e+01" cType="1" res="-2.2799907624721527e-01" rms="2.7254158258438110e-01" purity="1.3506701588630676e-01" nType="0">
          <Node pos="l" depth="2" NCoef="0" IVar="8" Cut="1.3928879797458649e-01" cType="1" res="-2.5302109122276306e-01" rms="2.4197840690612793e-01" purity="9.2350959777832031e-02" nType="0">
            <Node pos="l" depth="3" NCoef="0" IVar="3" Cut="4.7753691673278809e-02" cType="1" res="-1.9645449519157410e-01" rms="3.2807269692420959e-01" purity="1.9124998152256012e-01" nType="0">
              <Node pos="l" depth="4" NCoef="0" IVar="-1" Cut="0.0000000000000000e+00" cType="1" res="-1.0507320053875446e-02" rms="4.0755057334899902e-01" purity="3.6574372649192810e-01" nType="-99"/>
              <Node pos="r" depth="4" NCoef="0" IVar="-1" Cut="0.0000000000000000e+00" cType="1" res="-2.1106727421283722e-02" rms="2.3209196329116821e-01" purity="6.4944043755531311e-02" nType="-99"/>
            </Node>
            <Node pos="r" depth="3" NCoef="0" IVar="5" Cut="4.9366712570190430e+00" cType="1" res="-2.8838840126991272e-01" rms="1.5689744055271149e-01" purity="3.0516015365719795e-02" nType="0">
              <Node pos="l" depth="4" NCoef="0" IVar="-1" Cut="0.0000000000000000e+00" cType="1" res="-2.3317642509937286e-02" rms="1.0471852123737335e-01" purity="1.1688118800520897e-02" nType="-99"/>
              <Node pos="r" depth="4" NCoef="0" IVar="-1" Cut="0.0000000000000000e+00" cType="1" res="-2.0091097801923752e-02" rms="2.8002214431762695e-01" purity="1.0775384306907654e-01" nType="-99"/>
            </Node>
          </Node>
          <Node pos="r" depth="2" NCoef="0" IVar="-1" Cut="0.0000000000000000e+00" cType="1" res="1.1541884392499924e-02" rms="4.0657240152359009e-01" purity="6.5620237588882446e-01" nType="-99"/>
        </Node>
        <Node pos="r" depth="1" NCoef="0" IVar="12" Cut="3.3311295509338379e-01" cType="1" res="2.0807132124900818e-02" rms="2.5138863921165466e-01" purity="8.2962238788604736e-01" nType="0">
          <Node pos="l" depth="2" NCoef="0" IVar="-1" Cut="0.0000000000000000e+00" cType="1" res="-1.7901808023452759e-02" rms="3.1993710994720459e-01" purity="1.1880172789096832e-01" nType="-99"/>
          <Node pos="r" depth="2" NCoef="0" IVar="3" Cut="3.3406998962163925e-02" cType="1" res="4.7026265412569046e-02" rms="2.2787575423717499e-01" purity="9.0688258409500122e-01" nType="0">
            <Node pos="l" depth="3" NCoef="0" IVar="9" Cut="3.0647084712982178e+00" cType="1" res="5.7212173938751221e-02" rms="2.0928496122360229e-01" purity="9.3255794048309326e-01" nType="0">
              <Node pos="l" depth="4" NCoef="0" IVar="-1" Cut="0.0000000000000000e+00" cType="1" res="4.4558193534612656e-02" rms="1.8233977258205414e-01" purity="9.5494472980499268e-01" nType="-99"/>
              <Node pos="r" depth="4" NCoef="0" IVar="-1" Cut="0.0000000000000000e+00" cType="1" res="-3.9898338727653027e-03" rms="3.5399875044822693e-01" purity="7.4625438451766968e-01" nType="-99"/>
            </Node>
            <Node pos="r" depth="3" NCoef="0" IVar="-1" Cut="0.0000000000000000e+00" cType="1" res="-1.5292001888155937e-02" rms="3.9848691225051880e-01" purity="4.6781972050666809e-01" nType="-99"/>
          </Node>
        </Node>
      </Node>
    </BinaryTree>
    <BinaryTree type="DecisionTree" boostWeight="1.0000000000000000e+00" itree="17">
      <Node pos="s" depth="0" NCoef="0" IVar="6" Cut="8.5756164789199829e-01" cType="1" res="-9.6434794366359711e-02" rms="2.8548723459243774e-01" purity="4.9976974725723267e-01" nType="0">
        <Node pos="l" depth="1" NCoef="0" IVar="5" Cut="6.0699276924133301e+00" cType="1" res="-2.0905566215515137e-01" rms="2.8364902734756470e-01" purity="1.6769492626190186e-01" nType="0">
          <Node pos="l" depth="2" NCoef="0" IVar="8" Cut="8.4563903510570526e-02" cType="1" res="-2.5257954001426697e-01" rms="2.2636623680591583e-01" purity="8.4854461252689362e-02" nType="0">
            <Node pos="l" depth="3" NCoef="0" IVar="3" Cut="5.1721923053264618e-02" cType="1" res="-1.8980538845062256e-01" rms="3.2658374309539795e-01" purity="2.0419511198997498e-01" nType="0">
              <Node pos="l" depth="4" NCoef="0" IVar="-1" Cut="0.0000000000000000e+00" cType="1" res="-1.1172282509505749e-02" rms="4.0019291639328003e-01" purity="3.7646523118019104e-01" nType="-99"/>
              <Node pos="r" depth="4" NCoef="0" IVar="-1" Cut="0.0000000000000000e+00" cType="1" res="-2.0863927900791168e-02" rms="2.2841218113899231e-01" purity="6.3553519546985626e-02" nType="-99"/>
            </Node>
            <Node pos="r" depth="3" NCoef="0" IVar="8" Cut="2.1206630766391754e-01" cType="1" res="-2.8238439559936523e-01" rms="1.4890088140964508e-01" purity="2.8192089870572090e-02" nType="0">
              <Node pos="l" depth="4" NCoef="0" IVar="-1" Cut="0.0000000000000000e+00" cType="1" res="-2.1370101720094681e-02" rms="2.5036942958831787e-01" purity="8.9602455496788025e-02" nType="-99"/>
              <Node pos="r" depth="4" NCoef="0" IVar="-1" Cut="0.0000000000000000e+00" cType="1" res="-2.2918157279491425e-02" rms="1.0747404396533966e-01" purity="1.2423500418663025e-02" nType="-99"/>
            </Node>
          </Node>
          <Node pos="r" depth="2" NCoef="0" IVar="12" Cut="9.2008888721466064e-01" cType="1" res="-5.3823523223400116e-02" rms="3.9217591285705566e-01" purity="4.6315351128578186e-01" nType="0">
            <Node pos="l" depth="3" NCoef="0" IVar="-1" Cut="0.0000000000000000e+00" cType="1" res="-1.9559217616915703e-02" rms="3.2647052407264709e-01" purity="1.6456979513168335e-01" nType="-99"/>
            <Node pos="r" depth="3" NCoef="0" IVar="9" Cut="1.7520792484283447e+00" cType="1" res="6.6588766872882843e-02" rms="3.8556110858917236e-01" purity="6.6080701351165771e-01" nType="0">
              <Node pos="l" depth="4" NCoef="0" IVar="-1" Cut="0.0000000000000000e+00" cType="1" res="4.0407769381999969e-02" rms="3.3954644203186035e-01" purity="8.1914937496185303e-01" nType="-99"/>
              <Node pos="r" depth="4" NCoef="0" IVar="-1" Cut="0.0000000000000000e+00" cType="1" res="-9.6730366349220276e-03" rms="3.9767447113990784e-01" purity="4.2981886863708496e-01" nType="-99"/>
            </Node>
          </Node>
        </Node>
        <Node pos="r" depth="1" NCoef="0" IVar="12" Cut="5.0222122669219971e-01" cType="1" res="2.8185296803712845e-02" rms="2.3042485117912292e-01" purity="8.6722552776336670e-01" nType="0">
          <Node pos="l" depth="2" NCoef="0" IVar="-1" Cut="0.0000000000000000e+00" cType="1" res="-1.4944758266210556e-02" rms="3.6332601308822632e-01" purity="1.7933723330497742e-01" nType="-99"/>
          <Node pos="r" depth="2" NCoef="0" IVar="12" Cut="9.3033760786056519e-01" cType="1" res="4.9074072390794754e-02" rms="2.0068746805191040e-01" purity="9.3843555450439453e-01" nType="0">
            <Node pos="l" depth="3" NCoef="0" IVar="9" Cut="1.5130796432495117e+00" cType="1" res="-1.4669857919216156e-02" rms="3.8258415460586548e-01" purity="7.4423074722290039e-01" nType="0">
              <Node pos="l" depth="4" NCoef="0" IVar="-1" Cut="0.0000000000000000e+00" cType="1" res="1.3444127514958382e-02" rms="3.3684578537940979e-01" purity="8.3902102708816528e-01" nType="-99"/>
              <Node pos="r" depth="4" NCoef="0" IVar="-1" Cut="0.0000000000000000e+00" cType="1" res="-1.4769892208278179e-02" rms="4.2220988869667053e-01" purity="6.2276536226272583e-01" nType="-99"/>
            </Node>
            <Node pos="r" depth="3" NCoef="0" IVar="3" Cut="1.5152076259255409e-02" cType="1" res="5.8993674814701080e-02" rms="1.5177151560783386e-01" purity="9.6865701675415039e-01" nType="0">
              <Node pos="l" depth="4" NCoef="0" IVar="-1" Cut="0.0000000000000000e+00" cType="1" res="6.0622248798608780e-02" rms="1.3360904157161713e-01" purity="9.7875350713729858e-01" nType="-99"/>
              <Node pos="r" depth="4" NCoef="0" IVar="-1" Cut="0.0000000000000000e+00" cType="1" res="3.8102273829281330e-03" rms="2.9940050840377808e-01" purity="8.3428138494491577e-01" nType="-99"/>
            </Node>
          </Node>
        </Node>
      </Node>
    </BinaryTree>
    <BinaryTree type="DecisionTree" boostWeight="1.0000000000000000e+00" itree="18">
      <Node pos="s" depth="0" NCoef="0" IVar="3" Cut="3.3830706030130386e-02" cType="1" res="-9.5506794750690460e-02" rms="2.8080743551254272e-01" purity="4.9969878792762756e-01" nType="0">
        <Node pos="l" depth="1" NCoef="0" IVar="12" Cut="8.9025264978408813e-01" cType="1" res="-1.4828497543931007e-02" rms="2.7898260951042175e-01" purity="7.1882414817810059e-01" nType="0">
          <Node pos="l" depth="2" NCoef="0" IVar="6" Cut="9.3293356895446777e-01" cType="1" res="-1.6504022479057312e-01" rms="3.5062819719314575e-01" purity="2.7142733335494995e-01" nType="0">
            <Node pos="l" depth="3" NCoef="0" IVar="9" Cut="2.1124384403228760e+00" cType="1" res="-2.1304772794246674e-01" rms="3.1923869252204895e-01" purity="1.7528031766414642e-01" nType="0">
              <Node pos="l" depth="4" NCoef="0" IVar="-1" Cut="0.0000000000000000e+00" cType="1" res="-1.5262958593666553e-02" rms="3.6913552880287170e-01" purity="2.5975033640861511e-01" nType="-99"/>
              <Node pos="r" depth="4" NCoef="0" IVar="-1" Cut="0.0000000000000000e+00" cType="1" res="-2.2024348378181458e-02" rms="2.3727777600288391e-01" purity="7.8969523310661316e-02" nType="-99"/>
            </Node>
            <Node pos="r" depth="3" NCoef="0" IVar="-1" Cut="0.0000000000000000e+00" cType="1" res="-3.9030571933835745e-03" rms="3.9703327417373657e-01" purity="5.4644006490707397e-01" nType="-99"/>
          </Node>
          <Node pos="r" depth="2" NCoef="0" IVar="8" Cut="3.7300300598144531e-01" cType="1" res="3.7579827010631561e-02" rms="2.2687885165214539e-01" purity="8.7491923570632935e-01" nType="0">
            <Node pos="l" depth="3" NCoef="0" IVar="4" Cut="4.9744341522455215e-02" cType="1" res="5.3324259817600250e-02" rms="2.0524831116199493e-01" purity="9.2915719747543335e-01" nType="0">
              <Node pos="l" depth="4" NCoef="0" IVar="-1" Cut="0.0000000000000000e+00" cType="1" res="4.2737059295177460e-02" rms="1.8619117140769958e-01" purity="9.5288407802581787e-01" nType="-99"/>
              <Node pos="r" depth="4" NCoef="0" IVar="-1" Cut="0.0000000000000000e+00" cType="1" res="-6.8407482467591763e-03" rms="3.9681777358055115e-01" purity="5.2667105197906494e-01" nType="-99"/>
            </Node>
            <Node pos="r" depth="3" NCoef="0" IVar="-1" Cut="0.0000000000000000e+00" cType="1" res="-1.3540985994040966e-02" rms="3.5214462876319885e-01" purity="2.4027313292026520e-01" nType="-99"/>
          </Node>
        </Node>
        <Node pos="r" depth="1" NCoef="0" IVar="3" Cut="7.0265524089336395e-02" cType="1" res="-2.5242543220520020e-01" rms="2.0870141685009003e-01" purity="7.3501653969287872e-02" nType="0">
          <Node pos="l" depth="2" NCoef="0" IVar="-1" Cut="0.0000000000000000e+00" cType="1" res="-1.7667962238192558e-02" rms="3.1859165430068970e-01" purity="2.3256239295005798e-01" nType="-99"/>
          <Node pos="r" depth="2" NCoef="0" IVar="9" Cut="1.8763467073440552e+00" cType="1" res="-2.6808005571365356e-01" rms="1.6902595758438110e-01" purity="3.5879693925380707e-02" nType="0">
            <Node pos="l" depth="3" NCoef="0" IVar="-1" Cut="0.0000000000000000e+00" cType="1" res="-2.0531024783849716e-02" rms="2.2665980458259583e-01" purity="6.7860640585422516e-02" nType="-99"/>
            <Node pos="r" depth="3" NCoef="0" IVar="0" Cut="2.6792331695556641e+01" cType="1" res="-2.8212064504623413e-01" rms="1.0647854954004288e-01" purity="1.2366372160613537e-02" nType="0">
              <Node pos="l" depth="4" NCoef="0" IVar="-1" Cut="0.0000000000000000e+00" cType="1" res="-2.2535765543580055e-02" rms="9.2540800571441650e-02" purity="9.3294354155659676e-03" nType="-99"/>
              <Node pos="r" depth="4" NCoef="0" IVar="-1" Cut="0.0000000000000000e+00" cType="1" res="-2.2975303232669830e-02" rms="1.1881662160158157e-01" purity="1.5463750809431076e-02" nType="-99"/>
            </Node>
          </Node>
        </Node>
      </Node>
    </BinaryTree>
    <BinaryTree type="DecisionTree" boostWeight="1.0000000000000000e+00" itree="19">
      <Node pos="s" depth="0" NCoef="0" IVar="6" Cut="8.5756164789199829e-01" cType="1" res="-9.3866586685180664e-02" rms="2.7736186981201172e-01" purity="5.0054770708084106e-01" nType="0">
        <Node pos="l" depth="1" NCoef="0" IVar="5" Cut="6.4809179306030273e+00" cType="1" res="-1.9657403230667114e-01" rms="2.7844396233558655e-01" purity="1.6811315715312958e-01" nType="0">
          <Node pos="l" depth="2" NCoef="0" IVar="8" Cut="8.4568202495574951e-02" cType="1" res="-2.3467893898487091e-01" rms="2.2941614687442780e-01" purity="8.9312598109245300e-02" nType="0">
            <Node pos="l" depth="3" NCoef="0" IVar="12" Cut="6.4126265048980713e-01" cType="1" res="-1.7308706045150757e-01" rms="3.2854795455932617e-01" purity="2.1228088438510895e-01" nType="0">
              <Node pos="l" depth="4" NCoef="0" IVar="-1" Cut="0.0000000000000000e+00" cType="1" res="-2.0740833133459091e-02" rms="2.0738297700881958e-01" purity="5.2104514092206955e-02" nType="-99"/>
              <Node pos="r" depth="4" NCoef="0" IVar="-1" Cut="0.0000000000000000e+00" cType="1" res="-1.1062528006732464e-02" rms="3.9155372977256775e-01" purity="3.4998068213462830e-01" nType="-99"/>
            </Node>
            <Node pos="r" depth="3" NCoef="0" IVar="8" Cut="1.9841882586479187e-01" cType="1" res="-2.6413515210151672e-01" rms="1.5328721702098846e-01" purity="3.0503200367093086e-02" nType="0">
              <Node pos="l" depth="4" NCoef="0" IVar="-1" Cut="0.0000000000000000e+00" cType="1" res="-2.0421875640749931e-02" rms="2.5650385022163391e-01" purity="9.7512081265449524e-02" nType="-99"/>
              <Node pos="r" depth="4" NCoef="0" IVar="-1" Cut="0.0000000000000000e+00" cType="1" res="-2.2252028807997704e-02" rms="1.1529084295034409e-01" purity="1.4683776535093784e-02" nType="-99"/>
            </Node>
          </Node>
          <Node pos="r" depth="2" NCoef="0" IVar="12" Cut="9.4001573324203491e-01" cType="1" res="-4.0489003062248230e-02" rms="3.8628104329109192e-01" purity="4.9089533090591431e-01" nType="0">
            <Node pos="l" depth="3" NCoef="0" IVar="-1" Cut="0.0000000000000000e+00" cType="1" res="-1.7882982268929482e-02" rms="3.4283855557441711e-01" purity="1.9424504041671753e-01" nType="-99"/>
            <Node pos="r" depth="3" NCoef="0" IVar="5" Cut="1.1532328605651855e+01" cType="1" res="8.3079084753990173e-02" rms="3.6994907259941101e-01" purity="7.1097970008850098e-01" nType="0">
              <Node pos="l" depth="4" NCoef="0" IVar="-1" Cut="0.0000000000000000e+00" cType="1" res="-1.2019802816212177e-03" rms="3.9514860510826111e-01" purity="5.6518137454986572e-01" nType="-99"/>
              <Node pos="r" depth="4" NCoef="0" IVar="-1" Cut="0.0000000000000000e+00" cType="1" res="6.0590617358684540e-02" rms="2.9450803995132446e-01" purity="9.0038096904754639e-01" nType="-99"/>
            </Node>
          </Node>
        </Node>
        <Node pos="r" depth="1" NCoef="0" IVar="12" Cut="5.4205763339996338e-01" cType="1" res="1.9632514566183090e-02" rms="2.2743296623229980e-01" purity="8.6791175603866577e-01" nType="0">
          <Node pos="l" depth="2" NCoef="0" IVar="-1" Cut="0.0000000000000000e+00" cType="1" res="-1.3931205496191978e-02" rms="3.6804634332656860e-01" purity="1.9135117530822754e-01" nType="-99"/>
          <Node pos="r" depth="2" NCoef="0" IVar="8" Cut="8.9468732476234436e-02" cType="1" res="3.8680043071508408e-02" rms="1.9744206964969635e-01" purity="9.4068580865859985e-01" nType="0">
            <Node pos="l" depth="3" NCoef="0" IVar="9" Cut="2.6281971931457520e+00" cType="1" res="4.6867590397596359e-02" rms="1.6623724997043610e-01" purity="9.6517181396484375e-01" nType="0">
              <Node pos="l" depth="4" NCoef="0" IVar="-1" Cut="0.0000000000000000e+00" cType="1" res="4.9066308885812759e-02" rms="1.5285749733448029e-01" purity="9.7168940305709839e-01" nType="-99"/>
              <Node pos="r" depth="4" NCoef="0" IVar="-1" Cut="0.0000000000000000e+00" cType="1" res="-1.6199047968257219e-04" rms="2.8045946359634399e-01" purity="8.8360780477523804e-01" nType="-99"/>
            </Node>
            <Node pos="r" depth="3" NCoef="0" IVar="6" Cut="9.4386065006256104e-01" cType="1" res="-2.2243654355406761e-02" rms="3.4527903795242310e-01" purity="7.5848478078842163e-01" nType="0">
              <Node pos="l" depth="4" NCoef="0" IVar="-1" Cut="0.0000000000000000e+00" cType="1" res="-1.4377864077687263e-02" rms="3.7656170129776001e-01" purity="6.6453158855438232e-01" nType="-99"/>
              <Node pos="r" depth="4" NCoef="0" IVar="-1" Cut="0.0000000000000000e+00" cType="1" res="1.1228810064494610e-02" rms="3.0059882998466492e-01" purity="8.5276365280151367e-01" nType="-99"/>
            </Node>
          </Node>
        </Node>
      </Node>
    </BinaryTree>
    <BinaryTree type="DecisionTree" boostWeight="1.0000000000000000e+00" itree="20">
      <Node pos="s" depth="0" NCoef="0" IVar="3" Cut="2.9850622639060020e-02" cType="1" res="-9.3151278793811798e-02" rms="2.7335113286972046e-01" purity="4.9988490343093872e-01" nType="0">
        <Node pos="l" depth="1" NCoef="0" IVar="12" Cut="8.7027692794799805e-01" cType="1" res="-1.7471216619014740e-02" rms="2.7216306328773499e-01" purity="7.2340726852416992e-01" nType="0">
          <Node pos="l" depth="2" NCoef="0" IVar="12" Cut="-3.2267369329929352e-02" cType="1" res="-1.5967176854610443e-01" rms="3.4649407863616943e-01" purity="2.5413510203361511e-01" nType="0">
            <Node pos="l" depth="3" NCoef="0" IVar="-1" Cut="0.0000000000000000e+00" cType="1" res="-2.0313927903771400e-02" rms="2.3257790505886078e-01" purity="5.7189669460058212e-02" nType="-99"/>
            <Node pos="r" depth="3" NCoef="0" IVar="9" Cut="2.0327939987182617e+00" cType="1" res="-1.0025426745414734e-01" rms="3.9257627725601196e-01" purity="3.8252654671669006e-01" nType="0">
              <Node pos="l" depth="4" NCoef="0" IVar="-1" Cut="0.0000000000000000e+00" cType="1" res="-1.2583418283611536e-03" rms="4.1891118884086609e-01" purity="5.4417282342910767e-01" nType="-99"/>
              <Node pos="r" depth="4" NCoef="0" IVar="-1" Cut="0.0000000000000000e+00" cType="1" res="-1.9015556201338768e-02" rms="3.2742595672607422e-01" purity="1.9076316058635712e-01" nType="-99"/>
            </Node>
          </Node>
          <Node pos="r" depth="2" NCoef="0" IVar="8" Cut="3.7299332022666931e-01" cType="1" res="2.7528377249836922e-02" rms="2.2604569792747498e-01" purity="8.7190920114517212e-01" nType="0">
            <Node pos="l" depth="3" NCoef="0" IVar="10" Cut="-5.2842545509338379e+00" cType="1" res="4.2298674583435059e-02" rms="2.0677769184112549e-01" purity="9.2717748880386353e-01" nType="0">
              <Node pos="l" depth="4" NCoef="0" IVar="-1" Cut="0.0000000000000000e+00" cType="1" res="3.5143516957759857e-02" rms="1.8872787058353424e-01" purity="9.4447106122970581e-01" nType="-99"/>
              <Node pos="r" depth="4" NCoef="0" IVar="-1" Cut="0.0000000000000000e+00" cType="1" res="-8.5410000756382942e-03" rms="3.3354005217552185e-01" purity="7.4573975801467896e-01" nType="-99"/>
            </Node>
            <Node pos="r" depth="3" NCoef="0" IVar="-1" Cut="0.0000000000000000e+00" cType="1" res="-1.3435028493404388e-02" rms="3.4032621979713440e-01" purity="2.3310229182243347e-01" nType="-99"/>
          </Node>
        </Node>
        <Node pos="r" depth="1" NCoef="0" IVar="3" Cut="6.6681273281574249e-02" cType="1" res="-2.3474772274494171e-01" rms="2.1252734959125519e-01" purity="8.1677295267581940e-02" nType="0">
          <Node pos="l" depth="2" NCoef="0" IVar="-1" Cut="0.0000000000000000e+00" cType="1" res="-1.6800288110971451e-02" rms="3.1980764865875244e-01" purity="2.5729927420616150e-01" nType="-99"/>
          <Node pos="r" depth="2" NCoef="0" IVar="9" Cut="1.8754467964172363e+00" cType="1" res="-2.5117293000221252e-01" rms="1.7224569618701935e-01" purity="3.8194321095943451e-02" nType="0">
            <Node pos="l" depth="3" NCoef="0" IVar="3" Cut="1.5291117131710052e-01" cType="1" res="-2.3197303712368011e-01" rms="2.3015125095844269e-01" purity="7.2024092078208923e-02" nType="0">
              <Node pos="l" depth="4" NCoef="0" IVar="-1" Cut="0.0000000000000000e+00" cType="1" res="-1.7748856917023659e-02" rms="2.9216873645782471e-01" purity="1.2758053839206696e-01" nType="-99"/>
              <Node pos="r" depth="4" NCoef="0" IVar="-1" Cut="0.0000000000000000e+00" cType="1" res="-2.1201208233833313e-02" rms="1.6663980484008789e-01" purity="3.0855312943458557e-02" nType="-99"/>
            </Node>
            <Node pos="r" depth="3" NCoef="0" IVar="0" Cut="2.8274076461791992e+01" cType="1" res="-2.6536473631858826e-01" rms="1.0941433906555176e-01" purity="1.3188698329031467e-02" nType="0">
              <Node pos="l" depth="4" NCoef="0" IVar="-1" Cut="0.0000000000000000e+00" cType="1" res="-2.1955560892820358e-02" rms="9.5879420638084412e-02" purity="1.0194776579737663e-02" nType="-99"/>
              <Node pos="r" depth="4" NCoef="0" IVar="-1" Cut="0.0000000000000000e+00" cType="1" res="-2.2492336109280586e-02" rms="1.2292013317346573e-01" purity="1.6651893034577370e-02" nType="-99"/>
            </Node>
          </Node>
        </Node>
      </Node>
    </BinaryTree>
    <BinaryTree type="DecisionTree" boostWeight="1.0000000000000000e+00" itree="21">
      <Node pos="s" depth="0" NCoef="0" IVar="6" Cut="8.7233036756515503e-01" cType="1" res="-9.0830549597740173e-02" rms="2.7036646008491516e-01" purity="5.0062519311904907e-01" nType="0">
        <Node pos="l" depth="1" NCoef="0" IVar="5" Cut="6.8174247741699219e+00" cType="1" res="-1.8208895623683929e-01" rms="2.7626663446426392e-01" purity="1.8330121040344238e-01" nType="0">
          <Node pos="l" depth="2" NCoef="0" IVar="8" Cut="9.4517402350902557e-02" cType="1" res="-2.1690082550048828e-01" rms="2.3422992229461670e-01" purity="1.0195423662662506e-01" nType="0">
            <Node pos="l" depth="3" NCoef="0" IVar="12" Cut="5.8158010244369507e-01" cType="1" res="-1.5702781081199646e-01" rms="3.2631781697273254e-01" purity="2.3263193666934967e-01" nType="0">
              <Node pos="l" depth="4" NCoef="0" IVar="-1" Cut="0.0000000000000000e+00" cType="1" res="-2.0183583721518517e-02" rms="2.0316590368747711e-01" purity="4.9257174134254456e-02" nType="-99"/>
              <Node pos="r" depth="4" NCoef="0" IVar="-1" Cut="0.0000000000000000e+00" cType="1" res="-1.0608047246932983e-02" rms="3.8282328844070435e-01" purity="3.7077659368515015e-01" nType="-99"/>
            </Node>
            <Node pos="r" depth="3" NCoef="0" IVar="5" Cut="4.5128927230834961e+00" cType="1" res="-2.4921144545078278e-01" rms="1.5501114726066589e-01" purity="3.1433649361133575e-02" nType="0">
              <Node pos="l" depth="4" NCoef="0" IVar="-1" Cut="0.0000000000000000e+00" cType="1" res="-2.1881669759750366e-02" rms="1.2496583908796310e-01" purity="1.8469041213393211e-02" nType="-99"/>
              <Node pos="r" depth="4" NCoef="0" IVar="-1" Cut="0.0000000000000000e+00" cType="1" res="-1.9590273499488831e-02" rms="2.3764802515506744e-01" purity="8.2665413618087769e-02" nType="-99"/>
            </Node>
          </Node>
          <Node pos="r" depth="2" NCoef="0" IVar="12" Cut="9.3988865613937378e-01" cType="1" res="-3.4709062427282333e-02" rms="3.7459778785705566e-01" purity="5.2769273519515991e-01" nType="0">
            <Node pos="l" depth="3" NCoef="0" IVar="-1" Cut="0.0000000000000000e+00" cType="1" res="-1.7114272341132164e-02" rms="3.4694683551788330e-01" purity="2.1121235191822052e-01" nType="-99"/>
            <Node pos="r" depth="3" NCoef="0" IVar="5" Cut="1.0803986549377441e+01" cType="1" res="7.4878513813018799e-02" rms="3.5354474186897278e-01" purity="7.4830716848373413e-01" nType="0">
              <Node pos="l" depth="4" NCoef="0" IVar="-1" Cut="0.0000000000000000e+00" cType="1" res="-1.8852975917980075e-03" rms="3.8831040263175964e-01" purity="5.9359008073806763e-01" nType="-99"/>
              <Node pos="r" depth="4" NCoef="0" IVar="-1" Cut="0.0000000000000000e+00" cType="1" res="5.0150103867053986e-02" rms="2.9354158043861389e-01" purity="8.9585524797439575e-01" nType="-99"/>
            </Node>
          </Node>
        </Node>
        <Node pos="r" depth="1" NCoef="0" IVar="12" Cut="6.6140323877334595e-01" cType="1" res="1.8322344869375229e-02" rms="2.1763476729393005e-01" purity="8.8017177581787109e-01" nType="0">
          <Node pos="l" depth="2" NCoef="0" IVar="-1" Cut="0.0000000000000000e+00" cType="1" res="-1.1744474060833454e-02" rms="3.8694474101066589e-01" purity="2.5071534514427185e-01" nType="-99"/>
          <Node pos="r" depth="2" NCoef="0" IVar="12" Cut="9.6262347698211670e-01" cType="1" res="3.4474134445190430e-02" rms="1.8203419446945190e-01" purity="9.5200592279434204e-01" nType="0">
            <Node pos="l" depth="3" NCoef="0" IVar="9" Cut="1.8737093210220337e+00" cType="1" res="-2.7304354589432478e-03" rms="3.2045167684555054e-01" purity="8.3746671676635742e-01" nType="0">
              <Node pos="l" depth="4" NCoef="0" IVar="-1" Cut="0.0000000000000000e+00" cType="1" res="1.4443436637520790e-02" rms="2.7603366971015930e-01" purity="9.0094077587127686e-01" nType="-99"/>
              <Node pos="r" depth="4" NCoef="0" IVar="-1" Cut="0.0000000000000000e+00" cType="1" res="-1.5105009078979492e-02" rms="3.9249745011329651e-01" purity="6.9764769077301025e-01" nType="-99"/>
            </Node>
            <Node pos="r" depth="3" NCoef="0" IVar="12" Cut="9.8435562849044800e-01" cType="1" res="4.3632820248603821e-02" rms="1.2485965341329575e-01" purity="9.8020213842391968e-01" nType="0">
              <Node pos="l" depth="4" NCoef="0" IVar="-1" Cut="0.0000000000000000e+00" cType="1" res="2.5576895102858543e-02" rms="1.8809102475643158e-01" purity="9.5241713523864746e-01" nType="-99"/>
              <Node pos="r" depth="4" NCoef="0" IVar="-1" Cut="0.0000000000000000e+00" cType="1" res="6.6098019480705261e-02" rms="9.9206648766994476e-02" purity="9.8815000057220459e-01" nType="-99"/>
            </Node>
          </Node>
        </Node>
      </Node>
    </BinaryTree>
    <BinaryTree type="DecisionTree" boostWeight="1.0000000000000000e+00" itree="22">
      <Node pos="s" depth="0" NCoef="0" IVar="3" Cut="2.9850341379642487e-02" cType="1" res="-8.9613951742649078e-02" rms="2.6677370071411133e-01" purity="5.0043803453445435e-01" nType="0">
        <Node pos="l" depth="1" NCoef="0" IVar="12" Cut="9.3006539344787598e-01" cType="1" res="-1.9681952893733978e-02" rms="2.6740235090255737e-01" purity="7.2485482692718506e-01" nType="0">
          <Node pos="l" depth="2" NCoef="0" IVar="6" Cut="9.2903274297714233e-01" cType="1" res="-1.2779426574707031e-01" rms="3.4755206108093262e-01" purity="3.3063793182373047e-01" nType="0">
            <Node pos="l" depth="3" NCoef="0" IVar="9" Cut="2.2305924892425537e+00" cType="1" res="-1.7584894597530365e-01" rms="3.2627376914024353e-01" purity="2.0912875235080719e-01" nType="0">
              <Node pos="l" depth="4" NCoef="0" IVar="-1" Cut="0.0000000000000000e+00" cType="1" res="-1.3018476776778698e-02" rms="3.7231639027595520e-01" purity="3.0672076344490051e-01" nType="-99"/>
              <Node pos="r" depth="4" NCoef="0" IVar="-1" Cut="0.0000000000000000e+00" cType="1" res="-2.0637324079871178e-02" rms="2.4464550614356995e-01" purity="8.9137092232704163e-02" nType="-99"/>
            </Node>
            <Node pos="r" depth="3" NCoef="0" IVar="9" Cut="1.5580589771270752e+00" cType="1" res="-1.0406734421849251e-02" rms="3.6931830644607544e-01" purity="6.2745946645736694e-01" nType="0">
              <Node pos="l" depth="4" NCoef="0" IVar="-1" Cut="0.0000000000000000e+00" cType="1" res="8.8497688993811607e-03" rms="3.4545645117759705e-01" purity="7.2821724414825439e-01" nType="-99"/>
              <Node pos="r" depth="4" NCoef="0" IVar="-1" Cut="0.0000000000000000e+00" cType="1" res="-1.0057673789560795e-02" rms="3.8838353753089905e-01" purity="4.9933841824531555e-01" nType="-99"/>
            </Node>
          </Node>
          <Node pos="r" depth="2" NCoef="0" IVar="9" Cut="3.0647084712982178e+00" cType="1" res="2.7306513860821724e-02" rms="2.0686715841293335e-01" purity="8.9619189500808716e-01" nType="0">
            <Node pos="l" depth="3" NCoef="0" IVar="0" Cut="3.0546775817871094e+01" cType="1" res="4.1922651231288910e-02" rms="1.8255548179149628e-01" purity="9.3981772661209106e-01" nType="0">
              <Node pos="l" depth="4" NCoef="0" IVar="-1" Cut="0.0000000000000000e+00" cType="1" res="9.6733082318678498e-04" rms="2.9113176465034485e-01" purity="7.9331570863723755e-01" nType="-99"/>
              <Node pos="r" depth="4" NCoef="0" IVar="-1" Cut="0.0000000000000000e+00" cType="1" res="4.6653967350721359e-02" rms="1.5455864369869232e-01" purity="9.6581071615219116e-01" nType="-99"/>
            </Node>
            <Node pos="r" depth="3" NCoef="0" IVar="0" Cut="5.1505313873291016e+01" cType="1" res="-7.4262477457523346e-02" rms="3.1110113859176636e-01" purity="5.9303164482116699e-01" nType="0">
              <Node pos="l" depth="4" NCoef="0" IVar="-1" Cut="0.0000000000000000e+00" cType="1" res="-1.7569230869412422e-02" rms="3.2027861475944519e-01" purity="4.0825250744819641e-01" nType="-99"/>
              <Node pos="r" depth="4" NCoef="0" IVar="-1" Cut="0.0000000000000000e+00" cType="1" res="2.6269964873790741e-03" rms="2.7813634276390076e-01" purity="8.2338058948516846e-01" nType="-99"/>
            </Node>
          </Node>
        </Node>
        <Node pos="r" depth="1" NCoef="0" IVar="8" Cut="6.4663402736186981e-02" cType="1" res="-2.2017262876033783e-01" rms="2.1063114702701569e-01" purity="8.1465713679790497e-02" nType="0">
          <Node pos="l" depth="2" NCoef="0" IVar="12" Cut="9.4960010051727295e-01" cType="1" res="-1.6909345984458923e-01" rms="2.9690316319465637e-01" purity="1.9517765939235687e-01" nType="0">
            <Node pos="l" depth="3" NCoef="0" IVar="-1" Cut="0.0000000000000000e+00" cType="1" res="-1.9176542758941650e-02" rms="2.4184659123420715e-01" purity="9.0216919779777527e-02" nType="-99"/>
            <Node pos="r" depth="3" NCoef="0" IVar="-1" Cut="0.0000000000000000e+00" cType="1" res="-5.6029781699180603e-03" rms="3.7852311134338379e-01" purity="4.6730452775955200e-01" nType="-99"/>
          </Node>
          <Node pos="r" depth="2" NCoef="0" IVar="9" Cut="2.2739908695220947e+00" cType="1" res="-2.3995073139667511e-01" rms="1.6127586364746094e-01" purity="3.7435896694660187e-02" nType="0">
            <Node pos="l" depth="3" NCoef="0" IVar="-1" Cut="0.0000000000000000e+00" cType="1" res="-1.9752696156501770e-02" rms="2.1702229976654053e-01" purity="7.1833923459053040e-02" nType="-99"/>
